{
  "input_sequences": [],
  "inputs": [
    {
      "name": "input",
      "variables": [
        {
          "name": "seed_chi2PerDoF",
          "offset": -1.2984056703378601,
          "scale": 2.3229264617966523
        },
        {
          "name": "seed_p",
          "offset": -3.8730802388444614,
          "scale": 2.2146322148563526
        },
        {
          "name": "seed_pt",
          "offset": -3.0783963469455355,
          "scale": 4.610955894746997
        },
        {
          "name": "seed_x",
          "offset": -0.19295878936748806,
          "scale": 0.0014091856183636067
        },
        {
          "name": "seed_y",
          "offset": 4.770153610467042,
          "scale": 0.0019151935939470761
        },
        {
          "name": "seed_tx",
          "offset": 0.002493217394975054,
          "scale": 3.2600086889926385
        },
        {
          "name": "seed_ty",
          "offset": 0.0006051405376567362,
          "scale": 14.811235511812143
        },
        {
          "name": "seed_angle",
          "offset": 0.0005945870322713634,
          "scale": 1.349911467950628
        },
        {
          "name": "seed_pr",
          "offset": -0.2373458146766905,
          "scale": 5.4252485447962835
        },
        {
          "name": "seed_r",
          "offset": -712.2841527468887,
          "scale": 0.0019285089504441804
        }
      ]
    }
  ],
  "layers": [
    {
      "activation": "rectified",
      "architecture": "dense",
      "bias": [
        0.09203174710273743,
        -0.8292816281318665,
        -0.3226790726184845,
        -0.5106082558631897,
        -0.3725787401199341,
        -0.49672937393188477,
        0.42612579464912415,
        -0.026624489575624466,
        0.24049870669841766,
        0.5224459171295166,
        0.2438776195049286,
        -0.2763634920120239,
        -0.13492771983146667,
        -0.19479727745056152,
        -0.3034796714782715,
        -0.08511053025722504,
        0.22206147015094757,
        0.1406775861978531,
        0.09519506990909576,
        0.5841277837753296,
        0.13745498657226562,
        -0.6005057692527771,
        -0.5219730734825134,
        -0.0764583945274353,
        0.03805716708302498,
        0.08578356355428696,
        -0.648002564907074,
        -0.4367167055606842,
        -0.15726353228092194,
        0.0671386644244194,
        0.01856333203613758,
        -0.26032134890556335,
        -0.01257674302905798,
        -0.4563070237636566,
        -0.45947834849357605,
        -0.04081440716981888,
        -0.3761976957321167,
        0.17848986387252808,
        -0.003917081747204065,
        0.1304987370967865,
        0.24814291298389435,
        -0.3325374722480774,
        -0.2268875539302826,
        -0.3848286271095276,
        0.3058883547782898,
        0.014749162830412388,
        0.48041751980781555,
        -0.03631984815001488,
        0.12826454639434814,
        0.13545092940330505,
        -0.2528310716152191,
        0.10848407447338104,
        0.15894480049610138,
        -0.45535528659820557,
        -0.2151770442724228,
        -0.15401634573936462,
        -0.5577048659324646,
        -0.017972160130739212,
        -0.06774625927209854,
        -0.6435995697975159,
        -0.036516107618808746,
        -1.190399408340454,
        0.013745645992457867,
        0.15449482202529907
      ],
      "weights": [
        -0.051696520298719406,
        -0.08298345655202866,
        -0.8247915506362915,
        0.26896944642066956,
        0.4950794577598572,
        -0.25799110531806946,
        -0.1872064769268036,
        -0.8153059482574463,
        -0.12699207663536072,
        0.3523232042789459,
        -0.17651459574699402,
        -0.568856954574585,
        -1.113100290298462,
        0.7766247391700745,
        -0.00240927841514349,
        0.698257327079773,
        -0.34186628460884094,
        0.5255181789398193,
        0.5238028764724731,
        -0.0689428523182869,
        -0.10589023679494858,
        -1.1721420288085938,
        -0.732526957988739,
        0.12034822255373001,
        -0.1685558557510376,
        0.4717274010181427,
        0.4273223280906677,
        0.21849097311496735,
        0.22744837403297424,
        0.20805320143699646,
        0.22146190702915192,
        -1.1875805854797363,
        -0.37482014298439026,
        -0.5568343997001648,
        0.03829093277454376,
        0.28266456723213196,
        -0.2211046814918518,
        -0.20777539908885956,
        0.20795929431915283,
        0.5816603302955627,
        -0.0006752116605639458,
        -0.44853031635284424,
        0.14816339313983917,
        -0.16667872667312622,
        0.22638504207134247,
        0.049209803342819214,
        0.14221270382404327,
        1.2591739892959595,
        0.01415376178920269,
        -0.09357232600450516,
        0.0026760995388031006,
        -0.3526528477668762,
        0.38252612948417664,
        -0.04784184694290161,
        1.2572358846664429,
        -0.2687734365463257,
        0.2821292281150818,
        -0.4425123631954193,
        -0.023595867678523064,
        -0.014664479531347752,
        -0.21305185556411743,
        0.02939186431467533,
        0.030337627977132797,
        -0.07923641800880432,
        -1.7313052415847778,
        -0.05234406143426895,
        -0.7286521196365356,
        -0.39490965008735657,
        0.22563394904136658,
        0.13750387728214264,
        0.3090672194957733,
        0.5785363912582397,
        0.31847673654556274,
        -0.049196816980838776,
        -0.7929232716560364,
        -0.37490564584732056,
        1.347795009613037,
        -0.24295856058597565,
        0.25520649552345276,
        -0.04458387941122055,
        -0.12074709683656693,
        -0.3915552496910095,
        0.7394897937774658,
        -0.08583023399114609,
        0.12762269377708435,
        0.34480181336402893,
        -0.1532345563173294,
        0.278789222240448,
        0.705665111541748,
        -0.419662207365036,
        0.16668090224266052,
        -0.5706996917724609,
        0.003507243236526847,
        0.20790286362171173,
        -0.7300214171409607,
        -0.037436194717884064,
        -0.20434774458408356,
        0.9156925082206726,
        -0.28597721457481384,
        0.10143756866455078,
        0.21943853795528412,
        -0.5431775450706482,
        -0.5789546966552734,
        1.082505702972412,
        0.3991115093231201,
        0.1719900220632553,
        0.23614607751369476,
        0.026049068197607994,
        -0.7108594179153442,
        0.630618691444397,
        0.1778869479894638,
        -0.8805207014083862,
        -0.4159039556980133,
        0.6510580778121948,
        -0.3004089593887329,
        -0.08586567640304565,
        -0.9570972323417664,
        0.4033277630805969,
        -0.2208801954984665,
        0.08468732982873917,
        0.01019897498190403,
        0.17908404767513275,
        0.003780125407502055,
        -1.1468069553375244,
        0.5658918619155884,
        0.5713164210319519,
        -0.12874440848827362,
        0.038911473006010056,
        0.4829731285572052,
        -0.211569681763649,
        0.011635386385023594,
        -0.536589503288269,
        -0.9329928755760193,
        0.6393100023269653,
        0.07261216640472412,
        -0.4763909578323364,
        -0.14151990413665771,
        0.012017962522804737,
        -0.23947153985500336,
        0.10031887143850327,
        -0.046309977769851685,
        0.1912853866815567,
        0.023209556937217712,
        -0.9778532385826111,
        -1.3875560760498047,
        0.06765715032815933,
        0.9303382635116577,
        0.1897628903388977,
        -0.23259499669075012,
        -0.37079113721847534,
        0.0483003705739975,
        -0.12035499513149261,
        -0.04286656901240349,
        0.435072660446167,
        -0.2311602234840393,
        -0.7271653413772583,
        0.2989669144153595,
        1.0594028234481812,
        0.699035108089447,
        0.405959814786911,
        -0.012395476922392845,
        0.3748169243335724,
        -0.588381290435791,
        0.7138631343841553,
        -0.6283347010612488,
        -0.20086202025413513,
        1.1044552326202393,
        -0.36672258377075195,
        -0.19390515983104706,
        -0.10607520490884781,
        -0.06991349160671234,
        -0.04279940947890282,
        0.05260169506072998,
        0.634327232837677,
        -0.7316268682479858,
        -0.8481055498123169,
        0.6891297698020935,
        -0.4926128089427948,
        0.34695887565612793,
        -0.1560039520263672,
        -0.23296239972114563,
        0.4864972233772278,
        -0.3145711123943329,
        0.26647183299064636,
        -0.24440805613994598,
        -0.04838835075497627,
        0.5527356863021851,
        0.6616076231002808,
        -0.3567090928554535,
        0.5330972075462341,
        0.006229048129171133,
        0.36256447434425354,
        -0.4310835897922516,
        0.7546190619468689,
        0.46127215027809143,
        -0.7127284407615662,
        -0.699541449546814,
        0.37371131777763367,
        -0.07538273930549622,
        0.1823120415210724,
        -0.06797637045383453,
        0.025380978360772133,
        0.011275062337517738,
        -0.523514986038208,
        -0.8249903917312622,
        0.8068124651908875,
        0.5915141701698303,
        0.048305634409189224,
        -0.4425402581691742,
        0.40787026286125183,
        0.0012636352330446243,
        -0.1134265810251236,
        0.06725700199604034,
        0.030349677428603172,
        0.39029037952423096,
        0.13918106257915497,
        -0.2294192910194397,
        -0.0896448865532875,
        0.049387071281671524,
        -1.1928315162658691,
        -0.01424617413431406,
        0.49877363443374634,
        -0.5498896241188049,
        -0.801590621471405,
        0.4551713466644287,
        0.026940060779452324,
        -0.3952052891254425,
        -0.28571629524230957,
        0.5195058584213257,
        -0.5723332762718201,
        0.11703522503376007,
        -0.8352693915367126,
        -0.2690548896789551,
        -0.3985985219478607,
        0.18585871160030365,
        0.144149512052536,
        -0.8870757818222046,
        -0.07393073290586472,
        0.4171144664287567,
        -0.7556494474411011,
        1.1213676929473877,
        0.11358977854251862,
        0.2104097306728363,
        0.2143406867980957,
        -0.28425243496894836,
        0.1760750114917755,
        0.3225160539150238,
        0.18998685479164124,
        -0.516869068145752,
        -0.20475272834300995,
        -0.4179152846336365,
        -0.35894501209259033,
        0.10858666151762009,
        0.2713344693183899,
        0.06845305860042572,
        -0.68927001953125,
        0.4140918254852295,
        1.0349820852279663,
        0.07431627064943314,
        0.6483678221702576,
        0.01662343181669712,
        0.07015720009803772,
        0.007085908204317093,
        1.100326657295227,
        -0.004803365096449852,
        0.08439087867736816,
        -0.2761458158493042,
        -0.020673604682087898,
        0.25107452273368835,
        -0.915108859539032,
        0.07378698140382767,
        0.383469820022583,
        0.4082619249820709,
        -1.3249647617340088,
        -0.41679057478904724,
        -0.9428402185440063,
        0.29246002435684204,
        0.19431179761886597,
        0.5433687567710876,
        -0.15750116109848022,
        -0.021353552117943764,
        -0.5971831679344177,
        -0.04954613372683525,
        0.46800100803375244,
        -0.5505250692367554,
        -0.08064170181751251,
        0.2022412121295929,
        -0.6500804424285889,
        -0.004309312906116247,
        -0.7745064496994019,
        -0.17615993320941925,
        -0.19973893463611603,
        0.12036411464214325,
        0.04274839535355568,
        -0.4812765121459961,
        0.4844057261943817,
        0.11708008497953415,
        0.5184503197669983,
        0.1840173304080963,
        -1.528918981552124,
        -0.0124279810115695,
        0.3899725377559662,
        -0.16874849796295166,
        -0.31057021021842957,
        -0.10420075803995132,
        0.0397251658141613,
        -0.07180947065353394,
        0.20673620700836182,
        -0.5045144557952881,
        0.723985493183136,
        0.885317862033844,
        0.19793157279491425,
        -0.2912704646587372,
        -0.012749667279422283,
        0.3680688738822937,
        -0.013134284876286983,
        0.020067263394594193,
        -0.8268545866012573,
        0.3708626627922058,
        0.39174988865852356,
        0.05008505657315254,
        -0.04608019068837166,
        1.232247233390808,
        0.22125163674354553,
        0.2209283411502838,
        0.29376503825187683,
        -0.3402867019176483,
        0.760383129119873,
        -0.07186248898506165,
        0.3463076651096344,
        0.014233156107366085,
        -0.11703875660896301,
        -0.17040398716926575,
        0.13429345190525055,
        1.1770758628845215,
        -0.0004279414133634418,
        0.6459203958511353,
        -0.6321527361869812,
        0.13036568462848663,
        -0.013102957047522068,
        0.013512187637388706,
        0.09196067601442337,
        0.02422453463077545,
        0.2660028636455536,
        -0.16783389449119568,
        -1.007340908050537,
        0.2199244499206543,
        -0.021854503080248833,
        -0.7659803628921509,
        0.3561548888683319,
        -0.04953424632549286,
        0.3035656213760376,
        0.460529625415802,
        -0.33550405502319336,
        -0.12211883813142776,
        -0.6848457455635071,
        -0.5977813601493835,
        0.0007129943114705384,
        0.1900472342967987,
        -0.5001915693283081,
        -0.02207997255027294,
        0.14631280303001404,
        -0.08041220903396606,
        0.8328124284744263,
        -0.27861395478248596,
        -0.12425348907709122,
        0.9469361305236816,
        0.17845582962036133,
        0.138967365026474,
        -0.7282857298851013,
        0.11647605895996094,
        0.05545898526906967,
        0.9016478657722473,
        0.8227828145027161,
        0.41697394847869873,
        0.013015598990023136,
        0.6989761590957642,
        -0.11198382079601288,
        -0.19609546661376953,
        -0.6067608594894409,
        -0.010999694466590881,
        -0.4301981031894684,
        0.5907067656517029,
        0.4115813970565796,
        0.8029971718788147,
        -0.47723308205604553,
        -0.5398749709129333,
        -0.2513355016708374,
        -0.2680896818637848,
        -0.0005844646948389709,
        -0.03536064550280571,
        -0.07629623264074326,
        -0.003886875230818987,
        -0.40295055508613586,
        0.8627269268035889,
        0.3952398896217346,
        -0.8476414084434509,
        -0.023503655567765236,
        -0.3200974464416504,
        0.13126318156719208,
        -0.024115830659866333,
        -0.251260906457901,
        0.04166892543435097,
        0.14621131122112274,
        0.6820856928825378,
        -0.39095136523246765,
        -0.7014720439910889,
        -0.03439744934439659,
        -0.7682918310165405,
        0.43527257442474365,
        -0.11754199117422104,
        0.09441321343183517,
        0.14340327680110931,
        -0.8033136129379272,
        0.228241965174675,
        0.476959228515625,
        0.7814546227455139,
        0.13356205821037292,
        0.3664787709712982,
        -0.40488505363464355,
        0.1487274020910263,
        -0.9047619104385376,
        0.7511906623840332,
        0.33552417159080505,
        -0.1189657673239708,
        -0.0882357582449913,
        0.18988367915153503,
        -0.03337457403540611,
        0.6393503546714783,
        -0.4049869775772095,
        -0.03155861422419548,
        0.5917823314666748,
        0.13375112414360046,
        0.3900354504585266,
        -0.08352424204349518,
        0.5186715722084045,
        0.17841415107250214,
        -0.041838791221380234,
        -0.36221644282341003,
        0.8013169169425964,
        -0.03713598474860191,
        -0.3431566059589386,
        0.3172979950904846,
        -0.06482149660587311,
        1.4136273860931396,
        0.12781457602977753,
        0.8059078454971313,
        0.08788653463125229,
        -0.5161634683609009,
        0.2981765568256378,
        0.6305371522903442,
        -0.7717080116271973,
        0.47967398166656494,
        -0.05577467381954193,
        0.047289080917835236,
        0.019798338413238525,
        -0.11228229105472565,
        -0.0395788699388504,
        -0.3957723081111908,
        -0.184354767203331,
        -0.13814757764339447,
        -0.4193757176399231,
        -0.6297650933265686,
        0.7221134305000305,
        0.7887797355651855,
        -0.8627417087554932,
        -0.6831927299499512,
        0.11536366492509842,
        0.20693038403987885,
        -0.3863253891468048,
        -0.04250494763255119,
        -0.12180013209581375,
        -0.028278429061174393,
        -0.42305314540863037,
        0.9975939393043518,
        0.641018807888031,
        0.47259774804115295,
        1.3867264986038208,
        0.023998912423849106,
        -0.2646317780017853,
        -0.006200125440955162,
        0.01375470869243145,
        -0.3083289563655853,
        -0.018733838573098183,
        0.204880490899086,
        0.031109638512134552,
        0.18610870838165283,
        0.17183853685855865,
        0.9360655546188354,
        -1.169933557510376,
        0.015650862827897072,
        -0.06384264677762985,
        0.016960006207227707,
        -0.055977970361709595,
        -1.0274471044540405,
        0.0826144814491272,
        0.9972557425498962,
        -0.002302236622199416,
        -0.11320831626653671,
        0.042902808636426926,
        -0.06410092115402222,
        -0.3252444565296173,
        -0.32349011301994324,
        -0.38396570086479187,
        -0.6610667109489441,
        -0.6870641708374023,
        1.234900951385498,
        0.02853715792298317,
        -0.17755378782749176,
        -0.6402875781059265,
        -0.09346019476652145,
        -0.09722450375556946,
        0.03016289509832859,
        0.07631855458021164,
        -0.8300482034683228,
        -0.2597160041332245,
        0.8085430860519409,
        -0.03184879198670387,
        -0.22143875062465668,
        -0.035707686096429825,
        -0.27632835507392883,
        -0.1875372976064682,
        0.10628903657197952,
        0.4103054702281952,
        -0.09669589251279831,
        0.005780992563813925,
        -0.6977382302284241,
        0.46609437465667725,
        -0.41775795817375183,
        0.26082438230514526,
        0.0022223740816116333,
        -0.23370859026908875,
        0.1808367222547531,
        0.05346381664276123,
        -1.6076772212982178,
        -0.0249316468834877,
        -0.399310827255249,
        0.48045408725738525,
        -0.21671926975250244,
        0.25044819712638855,
        -0.004533612634986639,
        -0.4416385293006897,
        -1.3625355958938599,
        -0.5963488221168518,
        -0.3527384400367737,
        0.5515509247779846,
        0.27124491333961487,
        -0.0023062655236572027,
        -0.27284443378448486,
        0.3596101701259613,
        -0.01971440017223358,
        0.9254567623138428,
        -0.049112796783447266,
        0.42129620909690857,
        -0.5241701602935791,
        0.41288065910339355,
        0.19341778755187988,
        -0.09788127988576889,
        -1.0166823863983154,
        0.2521504759788513,
        -0.01516018621623516,
        0.09171991795301437,
        -0.13927258551120758,
        -0.5724981427192688,
        -0.3633124530315399,
        -0.25959333777427673,
        -0.033646512776613235,
        0.13413619995117188,
        0.2214178442955017,
        -1.0739415884017944,
        0.38413143157958984,
        -0.0892723947763443,
        0.46319591999053955,
        -0.055927641689777374,
        0.11224130541086197,
        0.5658461451530457,
        0.8787222504615784,
        0.027264351025223732,
        -0.36611369252204895,
        0.44689512252807617,
        0.13424475491046906,
        0.3219912052154541,
        0.114301897585392,
        -0.07112091779708862,
        1.4326540231704712,
        -0.1735609769821167,
        -0.7413294315338135,
        0.04433322697877884,
        -0.2506219148635864,
        0.17658449709415436,
        0.22085273265838623,
        0.6508219242095947,
        -0.029641831293702126,
        -0.35644280910491943,
        0.5653553605079651,
        0.9692063927650452,
        -0.7425307631492615,
        -0.2550846338272095,
        -0.820186197757721,
        0.5871351957321167,
        0.0013477288885042071,
        0.36209914088249207,
        0.0989997386932373,
        0.1365814208984375,
        -0.2674039304256439,
        0.42597198486328125,
        0.2916184067726135,
        -0.9951353669166565,
        0.7627197504043579,
        -0.4028117060661316,
        0.056835535913705826,
        -0.03770593926310539,
        -1.1394524574279785,
        -0.13063333928585052,
        -0.16971945762634277,
        -0.12980279326438904,
        0.18986362218856812,
        -0.008098014630377293,
        0.7216700315475464,
        0.2140543907880783,
        0.00177380524110049,
        -0.6355304718017578,
        0.5648776292800903,
        0.00040044705383479595,
        -0.7219664454460144,
        -0.008231130428612232,
        -0.5248233079910278,
        -0.1060207337141037,
        0.34731051325798035,
        -0.7105147838592529,
        0.004124457482248545,
        -0.32664892077445984,
        0.43027928471565247,
        0.4777938723564148,
        -0.8308585286140442,
        -0.5749921798706055,
        0.849293053150177,
        0.17056778073310852,
        -0.3369550108909607,
        0.191252663731575
      ]
    },
    {
      "architecture": "normalization",
      "bias": [
        -0.47151118516921997,
        -0.7128751873970032,
        -0.39364832639694214,
        -0.47229087352752686,
        -0.28725627064704895,
        -0.004157930612564087,
        -0.868689775466919,
        -0.5229274034500122,
        -0.4669926166534424,
        -1.1794545650482178,
        -0.3163185715675354,
        -0.3001408874988556,
        -0.2341361939907074,
        -0.18304772675037384,
        -0.42243337631225586,
        -0.3521847724914551,
        -0.7762025594711304,
        -0.440005898475647,
        0.0333532989025116,
        -0.5507351160049438,
        -0.264845609664917,
        -0.15051355957984924,
        -0.276684045791626,
        -0.4159177243709564,
        -0.6371826529502869,
        -0.6204763650894165,
        -0.2576209008693695,
        0.05961191654205322,
        -0.35984161496162415,
        -0.8428532481193542,
        -0.16621170938014984,
        -0.06633198261260986,
        -0.23938456177711487,
        -0.35933229327201843,
        -0.06506606191396713,
        -0.7963548898696899,
        -0.2433011680841446,
        -0.8622080683708191,
        -0.1764167845249176,
        -0.23294813930988312,
        -0.33041971921920776,
        -0.20698338747024536,
        -0.24864409863948822,
        -0.20386919379234314,
        -0.40888285636901855,
        -0.11346322298049927,
        -0.3981921672821045,
        -0.92827969789505,
        -0.3518168032169342,
        -0.16073089838027954,
        -0.5128356218338013,
        -0.22844567894935608,
        -0.4982834756374359,
        -0.2674165368080139,
        -0.24029944837093353,
        -1.0715938806533813,
        -0.21851767599582672,
        0.09449625015258789,
        -0.5550909042358398,
        -0.18656423687934875,
        -0.3665306568145752,
        -0.011735469102859497,
        -0.25236910581588745,
        -0.1850588619709015
      ],
      "weights": [
        1.1991283893585205,
        0.6809383630752563,
        0.9346771240234375,
        0.9649512767791748,
        2.1341168880462646,
        1.1559474468231201,
        0.5826647281646729,
        0.8608685731887817,
        1.4682607650756836,
        0.7429768443107605,
        0.7171592712402344,
        0.6923611164093018,
        1.7797343730926514,
        2.395850896835327,
        1.9996957778930664,
        1.0115504264831543,
        1.3585556745529175,
        1.8264069557189941,
        0.676785945892334,
        1.8569462299346924,
        2.7760891914367676,
        5.055093765258789,
        2.4365012645721436,
        1.3893951177597046,
        0.9047107100486755,
        0.7400925159454346,
        3.0241587162017822,
        0.615911602973938,
        2.2107555866241455,
        0.917332112789154,
        2.6097252368927,
        0.5205945372581482,
        0.9571542739868164,
        1.2711083889007568,
        6.959882736206055,
        1.2263054847717285,
        3.2197790145874023,
        0.7549055218696594,
        2.9119300842285156,
        4.852952003479004,
        3.7719149589538574,
        1.4992377758026123,
        1.2522549629211426,
        2.0972487926483154,
        0.786329448223114,
        1.5705195665359497,
        0.9406204223632812,
        0.8306704163551331,
        2.6976535320281982,
        7.895328998565674,
        1.775915265083313,
        3.304661989212036,
        0.7626385688781738,
        1.2302114963531494,
        1.995574712753296,
        0.9376611113548279,
        3.6649587154388428,
        0.726540207862854,
        1.2366820573806763,
        1.2938570976257324,
        1.1102787256240845,
        2.0280215740203857,
        1.334258794784546,
        3.4702820777893066
      ]
    },
    {
      "activation": "rectified",
      "architecture": "dense",
      "bias": [
        -0.627354085445404,
        -0.5542932152748108,
        -0.31580212712287903,
        -0.5791364312171936,
        -1.5477259159088135,
        0.20810331404209137,
        0.06203214079141617,
        -0.21533386409282684,
        -0.025277025997638702,
        -0.44694626331329346,
        0.058600328862667084,
        -0.4176834523677826,
        -0.6432313323020935,
        0.012315737083554268,
        0.15447667241096497,
        -0.49077823758125305,
        -0.44565221667289734,
        -0.09470260143280029,
        -0.10076239705085754,
        0.121637262403965,
        -0.0859866812825203,
        0.061859361827373505,
        -0.08528252691030502,
        -0.12293832004070282,
        -0.16113966703414917,
        -0.04072883352637291,
        -0.24183520674705505,
        -0.4630473256111145,
        -0.0642988383769989,
        -0.14026902616024017,
        0.10740381479263306,
        -0.2608058452606201,
        -0.48445409536361694,
        -0.15736736357212067,
        0.4255017638206482,
        0.18084034323692322,
        -0.3621447682380676,
        -0.6657499670982361,
        -0.3543657064437866,
        -0.46406105160713196,
        -0.10539144277572632,
        -0.27380651235580444,
        -0.48453763127326965,
        -0.11929425597190857,
        -0.2536398768424988,
        -0.20843277871608734,
        -0.1972256302833557,
        -0.42738184332847595,
        -0.6211941838264465,
        -0.23795534670352936,
        0.37800800800323486,
        0.01998894289135933,
        -0.44852566719055176,
        0.19332249462604523,
        -0.18265582621097565,
        -0.292229562997818,
        -0.2016628533601761,
        -0.3507632315158844,
        0.21210834383964539,
        0.0450163371860981,
        -0.6700340509414673,
        -0.030200902372598648,
        -0.05190335586667061,
        -0.17814123630523682
      ],
      "weights": [
        0.2408698946237564,
        -0.5665895342826843,
        -0.17435428500175476,
        0.4106660783290863,
        0.13690733909606934,
        0.44081276655197144,
        0.22063787281513214,
        -0.3372352719306946,
        -0.0832090824842453,
        0.4354417324066162,
        0.10640554875135422,
        -0.325535386800766,
        0.46805664896965027,
        0.06874535977840424,
        -0.0075501431711018085,
        -0.08071586489677429,
        0.14535629749298096,
        -0.24211077392101288,
        -0.5326312780380249,
        -0.5687447786331177,
        0.04657154530286789,
        0.29976335167884827,
        0.3521803319454193,
        0.15459635853767395,
        0.3882767856121063,
        0.38439297676086426,
        -0.07971405237913132,
        -0.23495401442050934,
        0.030844122171401978,
        0.15218843519687653,
        -0.05620429664850235,
        0.4977031350135803,
        0.11488019675016403,
        -0.007641843054443598,
        -0.07389281690120697,
        0.23277655243873596,
        0.20910361409187317,
        0.4006447196006775,
        -0.14787966012954712,
        0.17248384654521942,
        0.2655130624771118,
        -0.4829089045524597,
        -0.10728788375854492,
        0.32190680503845215,
        -0.05817772075533867,
        1.03065025806427,
        0.02652827836573124,
        0.06462164968252182,
        0.30402109026908875,
        0.240481898188591,
        0.44475117325782776,
        0.3972703218460083,
        0.03516088426113129,
        0.08584780991077423,
        0.2543414533138275,
        0.19898292422294617,
        0.5586975812911987,
        0.1223638579249382,
        0.09625174105167389,
        0.560681939125061,
        -0.33821868896484375,
        -0.19535668194293976,
        0.2532232105731964,
        0.08593720942735672,
        -0.3713095188140869,
        0.21980366110801697,
        0.005034611560404301,
        0.13464362919330597,
        -0.07997900247573853,
        -0.4909098446369171,
        0.49895933270454407,
        -0.09017612040042877,
        0.10508235543966293,
        -0.42539775371551514,
        -0.08857649564743042,
        -0.3376750946044922,
        0.10181844234466553,
        -0.21722809970378876,
        -0.39850977063179016,
        -0.037373557686805725,
        0.22908291220664978,
        -0.1818094700574875,
        -0.2416267991065979,
        0.4380759298801422,
        -0.3564508557319641,
        -0.10831845551729202,
        -0.020433863624930382,
        0.1614762246608734,
        -0.016276897862553596,
        -0.2324122041463852,
        0.17299163341522217,
        0.10746211558580399,
        0.2069743275642395,
        -0.3102485239505768,
        -0.03505956754088402,
        -0.055530570447444916,
        0.12244193255901337,
        -1.1236978769302368,
        0.8441969752311707,
        -0.052493866533041,
        0.07505233585834503,
        -0.023200590163469315,
        -0.024112626910209656,
        -0.04812641069293022,
        0.25488942861557007,
        0.022434674203395844,
        -0.02015383169054985,
        0.08505886793136597,
        -0.08034629374742508,
        -0.06589909642934799,
        0.46482136845588684,
        0.3819716274738312,
        -0.23437762260437012,
        -0.13793343305587769,
        0.29738256335258484,
        -0.13364364206790924,
        0.16242745518684387,
        -0.09123297780752182,
        -0.06771932542324066,
        -0.2629331648349762,
        0.1570068597793579,
        -0.1898675560951233,
        0.4910185933113098,
        -0.6326977014541626,
        0.17015859484672546,
        0.08072469383478165,
        0.36090153455734253,
        -0.5595769286155701,
        0.4537128806114197,
        -0.09110870957374573,
        -0.10973114520311356,
        -0.37155282497406006,
        0.5627116560935974,
        0.24991212785243988,
        0.2576574385166168,
        0.37998825311660767,
        -0.08313408493995667,
        0.10687314718961716,
        -0.1717383712530136,
        0.014301531948149204,
        -0.23427438735961914,
        -0.09178166836500168,
        0.10455954819917679,
        -0.012109894305467606,
        0.5383298993110657,
        0.6798341274261475,
        0.24645644426345825,
        -0.15866340696811676,
        -0.08146756142377853,
        -0.24220529198646545,
        0.16936510801315308,
        0.12093080580234528,
        -0.15318118035793304,
        -0.13320708274841309,
        0.03944982960820198,
        -0.060711827129125595,
        0.23497703671455383,
        -0.6028591990470886,
        -0.046645283699035645,
        -0.19595053791999817,
        0.009149588644504547,
        0.2935716509819031,
        -0.08745566755533218,
        -0.11787322163581848,
        -1.1580438613891602,
        -0.14776021242141724,
        0.28127288818359375,
        0.1132836788892746,
        0.20132550597190857,
        0.2292318195104599,
        0.17672330141067505,
        0.014087464660406113,
        -0.046500980854034424,
        0.1918991655111313,
        0.05102893337607384,
        -0.07562442123889923,
        -0.09983734786510468,
        0.3365178108215332,
        -0.14234167337417603,
        0.03404758870601654,
        -0.5322554707527161,
        -0.24450288712978363,
        0.3265434503555298,
        0.18581485748291016,
        -0.5789912939071655,
        -0.23838236927986145,
        -0.24170911312103271,
        0.06921777129173279,
        0.4299032986164093,
        -0.06725212931632996,
        0.1688890904188156,
        -0.6169566512107849,
        0.5276291966438293,
        0.14791952073574066,
        0.28027087450027466,
        -0.5690876245498657,
        0.1534363031387329,
        0.08859215676784515,
        -0.5901105999946594,
        0.3181068003177643,
        -0.4050710201263428,
        0.4064581096172333,
        0.15647175908088684,
        -0.20477676391601562,
        0.24882669746875763,
        -0.021383509039878845,
        0.12121260166168213,
        0.11610088497400284,
        0.16974903643131256,
        0.37534528970718384,
        -0.02219032123684883,
        0.13785192370414734,
        -0.2157185673713684,
        0.2652021050453186,
        -0.38756296038627625,
        -0.3716444969177246,
        -0.06799009442329407,
        0.0017528837779536843,
        0.5321783423423767,
        -0.10675403475761414,
        0.3322121798992157,
        -0.2725909650325775,
        0.28807881474494934,
        0.5064563751220703,
        -0.32463541626930237,
        0.360027551651001,
        0.2239730954170227,
        0.048654645681381226,
        -0.2929048538208008,
        -0.016284584999084473,
        0.4643094837665558,
        -0.5397539138793945,
        -0.4754549264907837,
        0.643842339515686,
        0.002468427177518606,
        -0.111068956553936,
        -0.33583539724349976,
        -0.07104138284921646,
        0.013319254852831364,
        -0.01631012186408043,
        0.3912515342235565,
        -0.08475089073181152,
        -0.19370713829994202,
        0.3273925483226776,
        0.35880517959594727,
        0.24849630892276764,
        -0.08493558317422867,
        0.20030494034290314,
        0.11112018674612045,
        0.12135997414588928,
        -0.03821585327386856,
        -0.23629489541053772,
        -0.15262244641780853,
        0.09018997102975845,
        -0.7166974544525146,
        0.09219250082969666,
        0.2481207400560379,
        0.15495531260967255,
        0.3658490478992462,
        0.5675764679908752,
        -0.056174494326114655,
        -0.21666206419467926,
        0.5542050004005432,
        0.36153772473335266,
        -0.2910587191581726,
        0.5607540607452393,
        0.22477306425571442,
        0.18030601739883423,
        -0.08532918244600296,
        -0.005480138119310141,
        0.23755517601966858,
        0.4575470983982086,
        0.05399409309029579,
        0.454812228679657,
        0.0322229266166687,
        -0.23551751673221588,
        0.23528611660003662,
        0.11534057557582855,
        0.09560465812683105,
        0.1835223138332367,
        0.10614641010761261,
        0.6791613698005676,
        0.19190439581871033,
        -0.4787651300430298,
        0.5623804330825806,
        0.34219688177108765,
        -0.23062536120414734,
        -0.13759203255176544,
        -0.3530232608318329,
        0.2425486147403717,
        -0.016014521941542625,
        0.27634406089782715,
        -0.1296815723180771,
        0.15206904709339142,
        0.07055623084306717,
        0.24238692224025726,
        0.09894192218780518,
        0.4263797402381897,
        0.20946411788463593,
        0.0033051962964236736,
        -0.09326205402612686,
        -0.22511662542819977,
        -0.05342595651745796,
        0.06333471089601517,
        -0.0527665838599205,
        -0.13605710864067078,
        -0.522674024105072,
        -0.5709841847419739,
        0.530986487865448,
        -0.28197649121284485,
        0.010867330245673656,
        0.41686946153640747,
        0.16825911402702332,
        -0.10334617644548416,
        0.15147313475608826,
        0.3316231667995453,
        -0.06731095910072327,
        0.2969246506690979,
        -0.09123318642377853,
        0.24635156989097595,
        0.10303016006946564,
        -0.1317305862903595,
        0.4559153616428375,
        -0.032349128276109695,
        0.20246493816375732,
        0.18444451689720154,
        -0.4655262231826782,
        -0.2068852335214615,
        -0.11456306278705597,
        -0.40301236510276794,
        -0.027587920427322388,
        -0.30759501457214355,
        0.4719063639640808,
        0.14106541872024536,
        0.25933632254600525,
        0.17268727719783783,
        0.1811927706003189,
        0.4128105938434601,
        0.08670797199010849,
        -0.43554362654685974,
        0.5431151986122131,
        -0.02227729745209217,
        -0.32055455446243286,
        -0.31612882018089294,
        0.13455268740653992,
        0.04620105028152466,
        0.12389683723449707,
        -0.11282278597354889,
        -0.16417177021503448,
        -0.1752115935087204,
        0.048604484647512436,
        -5.1924900617450476e-05,
        0.10580018907785416,
        0.10789242386817932,
        0.24176689982414246,
        -0.302511990070343,
        0.13122746348381042,
        -0.4585476219654083,
        -0.12516066431999207,
        -0.7367047667503357,
        -0.49789634346961975,
        0.27927008271217346,
        -0.0928480327129364,
        0.036476075649261475,
        0.20622655749320984,
        -0.1911572366952896,
        -0.09256458282470703,
        -0.3125004768371582,
        0.24530766904354095,
        0.932511031627655,
        -0.02967098169028759,
        0.45950639247894287,
        -0.21551667153835297,
        -0.34035056829452515,
        0.010000724345445633,
        0.5442927479743958,
        0.19992433488368988,
        -0.32252708077430725,
        -0.39171895384788513,
        -0.18014653027057648,
        0.048089224845170975,
        0.1610410362482071,
        -0.5769575834274292,
        0.3207070827484131,
        -0.30970972776412964,
        0.02475416474044323,
        0.36009201407432556,
        0.2633548676967621,
        -0.7053544521331787,
        0.3965107202529907,
        -0.2009459137916565,
        0.10101821273565292,
        -0.07827633619308472,
        0.16797304153442383,
        -0.4719252288341522,
        -0.17807455360889435,
        -0.11379605531692505,
        -0.29760366678237915,
        -0.21491456031799316,
        -0.0254962258040905,
        -0.09147942066192627,
        0.28723496198654175,
        -0.021046793088316917,
        0.0046990131959319115,
        -0.264664888381958,
        0.002621924038976431,
        -0.5214084386825562,
        0.49101683497428894,
        0.032408807426691055,
        -0.19284072518348694,
        0.1865374892950058,
        0.029916437342762947,
        0.03477180004119873,
        0.30731064081192017,
        -0.39130985736846924,
        0.18925386667251587,
        -0.27192917466163635,
        0.23229987919330597,
        0.05436637997627258,
        0.0975332260131836,
        -0.2760471701622009,
        0.30634188652038574,
        -0.05335172638297081,
        -0.16520659625530243,
        -0.37172234058380127,
        -0.16303470730781555,
        -0.28893980383872986,
        0.16406914591789246,
        -0.12290772795677185,
        -0.2556580603122711,
        0.33751678466796875,
        -0.4715176522731781,
        0.5315300822257996,
        0.02443169802427292,
        0.10785989463329315,
        0.2653556168079376,
        0.4655718505382538,
        0.6723516583442688,
        0.4929620623588562,
        0.3317500948905945,
        0.42835474014282227,
        0.29125282168388367,
        0.1759238988161087,
        0.07728444039821625,
        -0.41850313544273376,
        -0.05025164783000946,
        -0.06124914437532425,
        -0.6208770275115967,
        0.07671056687831879,
        0.6061761975288391,
        0.4045231342315674,
        0.03768391162157059,
        0.22010253369808197,
        0.11777709424495697,
        -0.059954382479190826,
        0.21971480548381805,
        0.2925577163696289,
        0.023654093965888023,
        0.28526875376701355,
        -0.060938067734241486,
        0.38726428151130676,
        0.29118818044662476,
        0.2342759370803833,
        0.338265061378479,
        0.5166609287261963,
        -0.0417255163192749,
        0.21244363486766815,
        -0.13962598145008087,
        -0.06950720399618149,
        0.12611888349056244,
        0.7365337014198303,
        -0.06549444049596786,
        0.17504554986953735,
        0.3237546980381012,
        0.30146095156669617,
        0.6254808902740479,
        0.06559105217456818,
        -0.08326908946037292,
        0.009218592196702957,
        -0.08987202495336533,
        -0.10427943617105484,
        0.02124832756817341,
        -0.5994946360588074,
        0.33672961592674255,
        0.37825116515159607,
        0.38536298274993896,
        -0.06002134084701538,
        -0.03160082548856735,
        -0.3122125566005707,
        -0.17730240523815155,
        0.21092624962329865,
        0.0438806414604187,
        -0.14236728847026825,
        -0.17127034068107605,
        0.14596083760261536,
        0.6554505228996277,
        -0.2771131694316864,
        0.0417293980717659,
        -0.05088347569108009,
        -0.0444461926817894,
        0.09981056302785873,
        0.05510205775499344,
        0.03490116819739342,
        0.09189841151237488,
        -0.10734692215919495,
        -0.0012926774797961116,
        0.3452095091342926,
        0.23936311900615692,
        0.23397183418273926,
        0.9189395904541016,
        -0.007670707069337368,
        -0.26854097843170166,
        -0.3978951871395111,
        -0.39660775661468506,
        -0.1722181737422943,
        0.08710182458162308,
        0.2119157463312149,
        -0.0025251461192965508,
        0.419433057308197,
        0.18575875461101532,
        0.20024415850639343,
        -0.41998162865638733,
        -0.0951572135090828,
        -0.519195556640625,
        0.5803218483924866,
        -0.07846851646900177,
        0.02111852914094925,
        0.10657207667827606,
        -0.49705052375793457,
        0.6802553534507751,
        -0.5394034385681152,
        -0.09046997874975204,
        0.09803231805562973,
        0.07658277451992035,
        -0.5393635034561157,
        -0.16037020087242126,
        0.18938346207141876,
        0.011766772717237473,
        0.02852480486035347,
        -0.551793098449707,
        0.5398725271224976,
        0.040879566222429276,
        -0.5600289702415466,
        -0.23650461435317993,
        0.3920225203037262,
        -0.6619725227355957,
        -0.0706745907664299,
        -0.4373311698436737,
        0.3451975882053375,
        -0.022634075954556465,
        -0.31709402799606323,
        -0.30356720089912415,
        0.029370175674557686,
        0.27393829822540283,
        0.3226185441017151,
        0.24013899266719818,
        -0.35615572333335876,
        -0.02678995579481125,
        -0.46490660309791565,
        0.09563253819942474,
        -0.2206130474805832,
        -0.1757991909980774,
        0.22485105693340302,
        0.07123864442110062,
        -0.14518338441848755,
        0.13730846345424652,
        -0.06028899922966957,
        -0.05706038698554039,
        -0.017863495275378227,
        0.3782418668270111,
        -0.025851286947727203,
        -0.04485566169023514,
        -0.1596182882785797,
        -0.027126971632242203,
        -0.19597697257995605,
        -0.34968891739845276,
        0.09114567190408707,
        0.26910844445228577,
        0.17607304453849792,
        0.01895795576274395,
        0.04649162292480469,
        -0.24582983553409576,
        0.4368670582771301,
        -0.026426566764712334,
        0.028336340561509132,
        0.5169283747673035,
        0.11737031489610672,
        0.28720054030418396,
        -0.031913865357637405,
        0.015654465183615685,
        -0.02180919051170349,
        0.16599899530410767,
        0.07073014229536057,
        0.5611684322357178,
        0.14917771518230438,
        0.579157292842865,
        0.08614959567785263,
        -0.16430515050888062,
        -0.3775145411491394,
        -0.30840954184532166,
        0.18874876201152802,
        0.0749722570180893,
        0.4063849449157715,
        -0.40497714281082153,
        -0.27818816900253296,
        0.2918770909309387,
        0.06435003876686096,
        -0.20094646513462067,
        -0.23965083062648773,
        0.12829259037971497,
        -0.04693811759352684,
        0.16066330671310425,
        0.5589415431022644,
        -0.12320101261138916,
        0.3564346730709076,
        -0.13265405595302582,
        -0.021581575274467468,
        -0.33115556836128235,
        0.4534600079059601,
        0.2894299030303955,
        -0.5464250445365906,
        -0.4279930591583252,
        0.13572439551353455,
        0.12274500727653503,
        0.18543493747711182,
        0.195966437458992,
        -0.12749475240707397,
        -0.15443108975887299,
        0.7790670990943909,
        -0.09129125624895096,
        -0.12442842125892639,
        -0.13105235993862152,
        0.09969260543584824,
        0.31590861082077026,
        -0.542560875415802,
        0.08656302839517593,
        0.1363491415977478,
        -0.25071755051612854,
        0.18554513156414032,
        -0.3979890048503876,
        0.2408757209777832,
        0.039132047444581985,
        0.23663043975830078,
        0.02642240934073925,
        -0.9455772042274475,
        -0.053635966032743454,
        -0.4712391197681427,
        -0.04755052551627159,
        -0.19253049790859222,
        0.33114758133888245,
        -0.12832623720169067,
        -0.18182672560214996,
        -0.13733486831188202,
        0.08196795731782913,
        -0.0437316857278347,
        0.0322817824780941,
        0.028868183493614197,
        0.2389955371618271,
        -0.05287385359406471,
        0.020220493897795677,
        -0.20399433374404907,
        -0.3211831748485565,
        -0.04710955545306206,
        -0.2182762771844864,
        0.012660128064453602,
        0.07334151864051819,
        0.09986764192581177,
        0.1252010613679886,
        -0.38270848989486694,
        0.12363992631435394,
        -0.6578128337860107,
        0.06141173467040062,
        0.3476021885871887,
        -0.22688807547092438,
        -0.14045833051204681,
        0.048186711966991425,
        -0.4758218228816986,
        0.4282337427139282,
        -0.14836567640304565,
        0.04415963217616081,
        0.09892530739307404,
        0.2790583670139313,
        -0.2156251072883606,
        -0.16757600009441376,
        -0.42702534794807434,
        -0.13184934854507446,
        -0.004243010189384222,
        0.04469854757189751,
        -0.1119602844119072,
        0.03419233113527298,
        0.04927954822778702,
        -0.04311521723866463,
        0.07371587306261063,
        -2.9488637447357178,
        0.0792679637670517,
        -0.0349884107708931,
        -0.4498184025287628,
        -0.3817804753780365,
        -0.0772666186094284,
        -0.052439115941524506,
        -0.298986554145813,
        0.025336988270282745,
        -0.24996326863765717,
        -0.20288659632205963,
        0.3320629596710205,
        0.2389213740825653,
        -0.15320757031440735,
        0.05208510532975197,
        0.1711900234222412,
        0.029011134058237076,
        -0.6193166375160217,
        0.1421300321817398,
        -0.19482916593551636,
        -0.2961235046386719,
        -0.1514110118150711,
        -0.08888879418373108,
        -0.1719658076763153,
        -0.13663938641548157,
        -1.0603680610656738,
        -0.11277060210704803,
        0.7040178179740906,
        -0.012170406989753246,
        -0.030132891610264778,
        0.16177155077457428,
        -0.25784721970558167,
        -0.3774515986442566,
        0.24330918490886688,
        0.008352032862603664,
        -0.05133002996444702,
        -0.20867198705673218,
        0.16459661722183228,
        0.14784124493598938,
        -0.45282402634620667,
        -0.6273091435432434,
        0.11864180117845535,
        0.09495995193719864,
        0.15059146285057068,
        0.4105815887451172,
        -0.051046185195446014,
        -0.1538962721824646,
        0.16797269880771637,
        0.2937994599342346,
        0.0898967832326889,
        -0.24005535244941711,
        -0.0012866387842223048,
        0.3194562792778015,
        -0.14647729694843292,
        -0.10242078453302383,
        0.4467405676841736,
        -0.05448006093502045,
        -0.2908797860145569,
        0.03760982304811478,
        0.005773522891104221,
        0.011265150271356106,
        0.44300350546836853,
        0.25972405076026917,
        0.2519209384918213,
        0.5225526690483093,
        -0.23827007412910461,
        0.05168572813272476,
        -0.46986839175224304,
        -0.3233509361743927,
        -0.00551959965378046,
        0.2687869966030121,
        0.24809950590133667,
        0.04565179720520973,
        -0.514925479888916,
        -0.5371041893959045,
        0.3964444100856781,
        0.45267072319984436,
        0.15599772334098816,
        -0.05040264129638672,
        -0.2920698821544647,
        -0.7946589589118958,
        -0.3436778485774994,
        0.0961194708943367,
        -0.4423828721046448,
        0.2861994206905365,
        0.27991023659706116,
        0.3212513327598572,
        -0.06319424510002136,
        -0.11732354760169983,
        0.2406790405511856,
        0.5763227939605713,
        0.17413437366485596,
        0.18328970670700073,
        -0.019817158579826355,
        0.21007829904556274,
        0.10130466520786285,
        0.8277497291564941,
        0.2425292581319809,
        0.12638595700263977,
        0.10402272641658783,
        0.3252358138561249,
        0.5719448328018188,
        -0.36476990580558777,
        -0.4113296568393707,
        -0.18583470582962036,
        0.2983415126800537,
        -0.3520899713039398,
        0.15704134106636047,
        0.24309778213500977,
        0.039326198399066925,
        0.2690562903881073,
        0.057699766010046005,
        0.18330925703048706,
        -0.0999716967344284,
        -0.20702184736728668,
        -0.0955270305275917,
        0.3409065008163452,
        -0.7289673089981079,
        -0.009151590056717396,
        -0.18428337574005127,
        0.23533913493156433,
        -0.21747878193855286,
        -0.1181509792804718,
        -0.22241780161857605,
        -0.056667592376470566,
        0.13323944807052612,
        0.13110418617725372,
        0.022368324920535088,
        -0.09743871539831161,
        -0.014537357725203037,
        0.16360490024089813,
        0.36081093549728394,
        -0.1410631239414215,
        0.39439913630485535,
        -0.10466030985116959,
        -0.03681841865181923,
        -0.5507986545562744,
        0.005915799643844366,
        0.046251267194747925,
        -0.6005411744117737,
        -0.3199341893196106,
        0.08842208236455917,
        -0.31853923201560974,
        0.2607749402523041,
        0.3715288043022156,
        -0.2495240718126297,
        0.12230271100997925,
        0.1874929964542389,
        0.24705296754837036,
        0.08296756446361542,
        -0.3379429578781128,
        -0.30103084444999695,
        0.05244512856006622,
        0.004887838382273912,
        0.11893593519926071,
        -0.20083731412887573,
        0.2091391682624817,
        -0.012437120079994202,
        -0.15849699079990387,
        0.007057816721498966,
        0.5359058380126953,
        0.38482311367988586,
        -0.26600050926208496,
        -0.33844655752182007,
        0.408339262008667,
        -0.21391354501247406,
        0.012612110935151577,
        -0.23653601109981537,
        0.10573985427618027,
        -0.3544265925884247,
        -0.3712514638900757,
        -0.08767107129096985,
        0.31314539909362793,
        -0.28522467613220215,
        -0.3050992786884308,
        0.28349974751472473,
        0.3200005888938904,
        0.34677499532699585,
        -0.6068341135978699,
        -0.5374353528022766,
        -0.33134087920188904,
        0.2597293257713318,
        -0.20282796025276184,
        0.1222798079252243,
        0.0022868700325489044,
        0.19239374995231628,
        0.35366618633270264,
        0.26557451486587524,
        0.08075347542762756,
        0.1995016634464264,
        0.33400067687034607,
        0.15276160836219788,
        0.7623231410980225,
        -0.31140485405921936,
        -0.1593727469444275,
        0.3054494559764862,
        0.11726463586091995,
        -0.42690184712409973,
        -0.05580293759703636,
        -0.3214554488658905,
        -0.23609773814678192,
        -0.11912666261196136,
        -0.04320257157087326,
        -0.1983346939086914,
        -0.1623217910528183,
        -0.13121728599071503,
        -0.44938376545906067,
        -0.668163001537323,
        0.03511028736829758,
        0.08254173398017883,
        -0.05607782304286957,
        0.1825949251651764,
        -0.3695518672466278,
        0.10987158119678497,
        0.2633281648159027,
        -0.42523643374443054,
        -0.04263608530163765,
        -0.130007803440094,
        -0.35498756170272827,
        -0.20767636597156525,
        -0.27518054842948914,
        0.35500967502593994,
        -0.03249506652355194,
        0.3250480890274048,
        -0.03830237686634064,
        0.013631444424390793,
        -0.7073071599006653,
        0.2741703987121582,
        -0.33604705333709717,
        0.1495860368013382,
        0.1417207568883896,
        0.42571571469306946,
        0.29102015495300293,
        0.2510044574737549,
        -0.7287226915359497,
        0.0009366903686895967,
        -0.46259793639183044,
        -0.41918593645095825,
        -0.09486047178506851,
        0.2222214937210083,
        0.46511152386665344,
        0.17148706316947937,
        -0.017395464703440666,
        0.5941817164421082,
        0.15376605093479156,
        -0.17744755744934082,
        -0.06894678622484207,
        0.2967902719974518,
        0.13467766344547272,
        -0.20453862845897675,
        0.0405096635222435,
        0.30302849411964417,
        0.4756486117839813,
        -0.3252057731151581,
        -0.2394547015428543,
        0.5252180695533752,
        -0.0012761696707457304,
        -0.23884281516075134,
        0.2718087434768677,
        0.024842819198966026,
        -0.2624586820602417,
        0.1646922081708908,
        -0.03574983403086662,
        -0.3574816882610321,
        -0.631067156791687,
        0.036875978112220764,
        0.2343376874923706,
        -0.41903677582740784,
        0.41361504793167114,
        0.2119540423154831,
        0.663094699382782,
        0.4511158764362335,
        -0.20096181333065033,
        0.19062240421772003,
        -0.33537039160728455,
        0.025456439703702927,
        -0.17044559121131897,
        -0.2601146101951599,
        -0.4589429497718811,
        0.22659720480442047,
        -0.3959243893623352,
        -0.00607009744271636,
        -1.0258119106292725,
        -0.1478247344493866,
        -0.4300781786441803,
        -0.16816119849681854,
        -0.19276759028434753,
        0.23652635514736176,
        -0.4035312533378601,
        0.03879667818546295,
        0.14938248693943024,
        0.12423034757375717,
        0.06621101498603821,
        -0.28499743342399597,
        -0.21494728326797485,
        -0.24673590064048767,
        -0.07566484808921814,
        0.13213318586349487,
        0.1225091814994812,
        0.04252343252301216,
        -0.16722135245800018,
        0.4269947409629822,
        -0.42054057121276855,
        0.02166198007762432,
        0.24672043323516846,
        -0.44219696521759033,
        -0.07796820998191833,
        0.09821292012929916,
        -0.061877477914094925,
        0.09433207660913467,
        0.17418229579925537,
        0.1789870411157608,
        -0.11184192448854446,
        -0.48638033866882324,
        0.09943966567516327,
        -0.22161489725112915,
        -0.2198413908481598,
        0.17410509288311005,
        -0.029318122193217278,
        -0.0999094694852829,
        -0.034096959978342056,
        -0.29084089398384094,
        0.45149746537208557,
        -0.3549969792366028,
        -0.23985236883163452,
        -0.06344326585531235,
        -0.10781270265579224,
        0.4278690814971924,
        0.5136914849281311,
        -0.415210098028183,
        -0.04319581389427185,
        -0.013890223577618599,
        0.4490842819213867,
        -0.11383525282144547,
        -0.18137973546981812,
        -0.16763845086097717,
        -1.3884660005569458,
        0.028265295550227165,
        0.044228944927453995,
        0.43562251329421997,
        0.2614009976387024,
        -0.004473531153053045,
        0.06505981087684631,
        0.4496738910675049,
        -1.3533308506011963,
        0.0225212499499321,
        0.1598118543624878,
        0.017331669107079506,
        0.212081640958786,
        -0.2529727518558502,
        -0.2626926600933075,
        -0.2859615683555603,
        0.4222143292427063,
        0.20023338496685028,
        -0.5015891790390015,
        0.02514740638434887,
        0.2529992163181305,
        0.06577352434396744,
        0.06103894114494324,
        -0.15828397870063782,
        0.19689908623695374,
        -0.028600621968507767,
        -0.32070931792259216,
        -0.05509485676884651,
        0.16209718585014343,
        -0.032175034284591675,
        0.28276175260543823,
        0.19118283689022064,
        -0.027165452018380165,
        -0.0639304667711258,
        -0.34634584188461304,
        -0.2534638047218323,
        -0.09680420905351639,
        -0.2616783678531647,
        -0.25996115803718567,
        -0.4782645106315613,
        0.07718674838542938,
        -0.28426745533943176,
        0.5653978586196899,
        -0.46049559116363525,
        -0.10248750448226929,
        -0.2975044250488281,
        -0.15684539079666138,
        0.3471132516860962,
        -0.0992152988910675,
        -1.3292315006256104,
        -0.028925446793437004,
        0.2688501477241516,
        -0.11688002198934555,
        -0.43722373247146606,
        -0.281376451253891,
        0.20932281017303467,
        -0.41970738768577576,
        0.2354179471731186,
        0.02096918225288391,
        0.17688636481761932,
        0.019017277285456657,
        -0.2491743564605713,
        -0.029310476034879684,
        0.3044474124908447,
        0.05982547625899315,
        -0.2081323266029358,
        0.40554022789001465,
        -0.31983456015586853,
        -0.5017034411430359,
        0.07008443027734756,
        -0.20146682858467102,
        -0.3108616769313812,
        0.004901563748717308,
        0.3193334639072418,
        -0.022072138264775276,
        0.13844797015190125,
        -0.36573493480682373,
        0.3796425461769104,
        0.12310855090618134,
        0.48513054847717285,
        -1.0680997371673584,
        0.23209553956985474,
        0.04820651933550835,
        -0.05767616629600525,
        0.09339393675327301,
        -0.20540572702884674,
        -0.013480347581207752,
        -0.1572393923997879,
        -0.5465978384017944,
        0.1599729359149933,
        0.2807322144508362,
        -0.35486525297164917,
        -0.08017598092556,
        0.0018012876389548182,
        -0.12712787091732025,
        -0.18300756812095642,
        -0.021597689017653465,
        -0.1553160697221756,
        -0.09381165355443954,
        0.0799407958984375,
        -0.38356509804725647,
        -0.21359944343566895,
        0.5525373220443726,
        -0.034922171384096146,
        -0.10258826613426208,
        0.18981949985027313,
        -0.21650002896785736,
        -0.005771231837570667,
        0.061760030686855316,
        0.35753679275512695,
        0.3883243203163147,
        0.023315943777561188,
        0.14384205639362335,
        0.05823957920074463,
        0.40158286690711975,
        -0.473491370677948,
        -0.19078871607780457,
        0.38129502534866333,
        0.22396227717399597,
        -0.06393765658140182,
        -0.11846762895584106,
        -0.482600599527359,
        -0.2187623679637909,
        -0.0556386336684227,
        0.14462727308273315,
        -0.3528938591480255,
        -0.26533663272857666,
        0.14176076650619507,
        0.09517347812652588,
        0.02956543117761612,
        0.07306425273418427,
        0.4494059681892395,
        -0.3059571385383606,
        -0.021647313609719276,
        0.22722171247005463,
        0.3265618681907654,
        0.060352832078933716,
        -0.09438105672597885,
        0.0881601944565773,
        0.4297662377357483,
        0.043876875191926956,
        -0.2932795286178589,
        0.17831887304782867,
        -1.0677732229232788,
        0.0629882737994194,
        -0.1488294154405594,
        -0.15980350971221924,
        -0.13902227580547333,
        0.34458109736442566,
        0.4674198627471924,
        0.10408640652894974,
        0.0567813366651535,
        0.08805592358112335,
        -0.09311972558498383,
        -0.18757085502147675,
        0.2286057472229004,
        -0.2921764850616455,
        0.6711907386779785,
        0.10947341471910477,
        0.3677331507205963,
        -0.30770614743232727,
        0.1546715497970581,
        -0.641488790512085,
        -0.0009330638567917049,
        0.020726028829813004,
        0.28549033403396606,
        -0.619692325592041,
        -0.19919362664222717,
        0.028208378702402115,
        0.07254042476415634,
        -0.3179759085178375,
        0.14610840380191803,
        -0.11304019391536713,
        -0.1732945293188095,
        0.2672666907310486,
        0.004349253140389919,
        0.1566133052110672,
        -0.7349795699119568,
        -0.17941497266292572,
        -0.1710529327392578,
        -0.5669528245925903,
        -0.06470293551683426,
        -0.13711392879486084,
        0.1648712456226349,
        -0.6067631244659424,
        -0.08988308906555176,
        0.23639315366744995,
        0.062436435371637344,
        -0.14281541109085083,
        -0.002230846555903554,
        -0.15215830504894257,
        -0.19942747056484222,
        0.019089533016085625,
        -0.17998634278774261,
        0.11371579766273499,
        -0.405276894569397,
        -0.06636366993188858,
        -0.2573080062866211,
        0.079518623650074,
        0.23066343367099762,
        0.1754126101732254,
        0.5290585160255432,
        0.06923463195562363,
        -0.1433710902929306,
        0.17439576983451843,
        0.2999965250492096,
        -0.3923969268798828,
        0.5354745388031006,
        0.1373489797115326,
        0.13110317289829254,
        -0.28938615322113037,
        -0.5110574960708618,
        -0.06122120842337608,
        0.3571873605251312,
        0.2681891620159149,
        -0.16177651286125183,
        0.441446453332901,
        0.17027343809604645,
        -0.08003555238246918,
        -0.16739784181118011,
        -0.056077275425195694,
        -0.05361374467611313,
        -0.22568543255329132,
        0.03805111348628998,
        0.040523797273635864,
        -0.13506898283958435,
        -0.7310042381286621,
        -0.5147348046302795,
        -0.2812504172325134,
        0.19308486580848694,
        0.18381933867931366,
        -0.5512739419937134,
        -0.22824199497699738,
        -0.3010663688182831,
        -0.347169429063797,
        0.12663640081882477,
        0.9278811812400818,
        0.35292935371398926,
        0.25827986001968384,
        0.13418033719062805,
        -0.2267715334892273,
        -0.17174717783927917,
        0.13344097137451172,
        0.11459980905056,
        -0.5234673023223877,
        -0.631693422794342,
        -0.1422220766544342,
        0.2327682375907898,
        0.0038036282639950514,
        0.19713227450847626,
        0.4371187686920166,
        0.1504218727350235,
        0.06244967132806778,
        0.05129479244351387,
        0.29055580496788025,
        -1.0787301063537598,
        -0.5536209940910339,
        -0.22950436174869537,
        -0.0032779753673821688,
        -0.20921047031879425,
        0.12962493300437927,
        0.16522982716560364,
        0.16562657058238983,
        -0.2525503933429718,
        -0.3398689925670624,
        -0.3181632459163666,
        0.07779558002948761,
        0.4284481704235077,
        -0.35347801446914673,
        -0.01825006678700447,
        -0.0955868512392044,
        0.25567927956581116,
        -0.286532998085022,
        0.0616099014878273,
        -0.6251342296600342,
        0.015349905006587505,
        0.480881929397583,
        0.12955568730831146,
        -0.0648164227604866,
        -0.2862599194049835,
        -0.11640644818544388,
        -0.7036941051483154,
        -0.17657485604286194,
        -0.5176742076873779,
        0.1779002547264099,
        -0.6228157877922058,
        -0.08892156928777695,
        0.23621463775634766,
        -0.519077718257904,
        -0.3957684338092804,
        0.14223219454288483,
        -0.03354056179523468,
        -0.13269589841365814,
        -0.09751518815755844,
        -0.32892730832099915,
        -0.2589564621448517,
        -0.005041944328695536,
        0.37891796231269836,
        -0.12346810102462769,
        -0.19748857617378235,
        0.1238994225859642,
        0.3029279112815857,
        0.06866210699081421,
        0.34961870312690735,
        -0.1155536025762558,
        -0.11405903100967407,
        0.22735746204853058,
        -0.26578906178474426,
        0.03298603743314743,
        0.29263412952423096,
        0.1324959099292755,
        0.06750159710645676,
        0.18939995765686035,
        -0.08428501337766647,
        -1.0378133058547974,
        0.11304906010627747,
        0.16775692999362946,
        -0.20706075429916382,
        0.08048814535140991,
        0.21796399354934692,
        -0.12538322806358337,
        -0.014420287683606148,
        0.2161768674850464,
        0.11573078483343124,
        0.39070820808410645,
        -0.15793737769126892,
        0.22475220263004303,
        -0.5245732665061951,
        -0.2771582305431366,
        -0.5120338201522827,
        0.12236969918012619,
        -0.09800230711698532,
        -0.14185358583927155,
        -0.17708730697631836,
        -0.0193007942289114,
        -0.4933980107307434,
        0.02232019416987896,
        0.16667981445789337,
        -0.12537360191345215,
        0.641184389591217,
        -0.5938076972961426,
        0.16575028002262115,
        0.30461809039115906,
        0.10525456815958023,
        -0.17086389660835266,
        0.25927162170410156,
        -0.07678639143705368,
        0.26149243116378784,
        -0.05609361454844475,
        0.057963039726018906,
        0.1538485884666443,
        -0.18234123289585114,
        -0.13021057844161987,
        0.07342813163995743,
        0.561195969581604,
        0.40743088722229004,
        -0.2584213614463806,
        0.5690296292304993,
        -0.3530557453632355,
        -0.05971210077404976,
        0.632203221321106,
        -0.21736958622932434,
        0.08817194402217865,
        0.008220792748034,
        -1.2683502435684204,
        0.017204932868480682,
        -0.3979889154434204,
        -0.14473669230937958,
        -0.1469920575618744,
        0.31739428639411926,
        0.026864541694521904,
        -0.20399357378482819,
        0.21989485621452332,
        -0.39741960167884827,
        0.10394161194562912,
        -0.0801902562379837,
        -0.2571903467178345,
        -0.22653540968894958,
        -0.042147014290094376,
        -0.40472590923309326,
        0.2639201879501343,
        0.11255782842636108,
        -0.009129049256443977,
        -0.11785859614610672,
        -0.6020292043685913,
        0.4757362902164459,
        -0.434034526348114,
        0.1058279275894165,
        -0.1499989777803421,
        -0.17259164154529572,
        -0.028159059584140778,
        -0.41318801045417786,
        0.015353713184595108,
        -0.011370685882866383,
        -0.10761786252260208,
        -0.04683218151330948,
        0.02576216496527195,
        0.026644743978977203,
        0.34630751609802246,
        -0.2953372895717621,
        0.3467167019844055,
        -0.20907917618751526,
        0.3240623474121094,
        -0.09463148564100266,
        0.27982258796691895,
        0.26862654089927673,
        0.18303197622299194,
        0.24778559803962708,
        0.23815792798995972,
        0.026380931958556175,
        -0.0451725535094738,
        -0.1169334426522255,
        -0.3905748128890991,
        -0.04923733323812485,
        0.043337948620319366,
        -0.30765578150749207,
        -0.12958243489265442,
        0.29031187295913696,
        0.325722336769104,
        -0.28686508536338806,
        0.10369417816400528,
        -0.3039185106754303,
        -0.15879057347774506,
        0.25165948271751404,
        -0.8192451000213623,
        0.0018823959399014711,
        -0.44388771057128906,
        -0.049257922917604446,
        -1.0588529109954834,
        -0.09475177526473999,
        -0.35442379117012024,
        -0.045048151165246964,
        0.17851994931697845,
        0.012195867486298084,
        0.16009369492530823,
        0.3349393308162689,
        0.056547656655311584,
        -0.007179217878729105,
        -0.05195392668247223,
        0.34896302223205566,
        0.3038647472858429,
        0.3304782211780548,
        0.05618084967136383,
        0.06859351694583893,
        -0.4954591393470764,
        -0.8034606575965881,
        -0.11494026333093643,
        0.21849694848060608,
        -0.18916840851306915,
        0.14270728826522827,
        0.07508257776498795,
        0.005089376587420702,
        0.2568035125732422,
        -0.5661355257034302,
        -0.36081036925315857,
        0.32153815031051636,
        -0.16318196058273315,
        0.24568721652030945,
        -0.35556697845458984,
        -0.20504195988178253,
        -0.0039443811401724815,
        -0.19160129129886627,
        -0.49853551387786865,
        0.6690244674682617,
        -0.05925766006112099,
        0.22878888249397278,
        -0.14654673635959625,
        -0.010400045663118362,
        -0.1801704317331314,
        -0.5101154446601868,
        0.1665407121181488,
        -0.057608071714639664,
        0.25518178939819336,
        0.14393553137779236,
        -0.028483444824814796,
        0.43072471022605896,
        0.34349581599235535,
        -0.3313259184360504,
        -0.0906103178858757,
        -0.3086632788181305,
        -0.07344622910022736,
        -0.6194052696228027,
        0.07075274735689163,
        -0.46158742904663086,
        0.1376209855079651,
        -0.432655394077301,
        -0.3190605342388153,
        0.22052925825119019,
        0.14613637328147888,
        -0.4663970470428467,
        0.16302132606506348,
        0.22298219799995422,
        0.26463043689727783,
        -0.3790908455848694,
        -0.14229455590248108,
        0.13978736102581024,
        0.015727270394563675,
        0.5003998875617981,
        -0.17669370770454407,
        -0.09370341151952744,
        0.01917688176035881,
        0.017512599006295204,
        0.13282163441181183,
        0.13719411194324493,
        -0.18033954501152039,
        0.4674471318721771,
        0.16022895276546478,
        -0.1590636819601059,
        0.11230246722698212,
        0.27480846643447876,
        0.05608779564499855,
        -0.062496982514858246,
        0.5346435308456421,
        0.601477861404419,
        -0.2257106751203537,
        -0.35208964347839355,
        0.1593799740076065,
        0.07917221635580063,
        0.18944786489009857,
        -0.39726635813713074,
        0.616642951965332,
        0.012260197661817074,
        0.04569259285926819,
        0.1953209638595581,
        -0.31565573811531067,
        -0.25053033232688904,
        -0.5130115151405334,
        -0.19390396773815155,
        0.10596797615289688,
        -0.20500753819942474,
        0.5534961819648743,
        0.12444239109754562,
        0.15264801681041718,
        0.4128847122192383,
        -0.08712322264909744,
        0.6374639272689819,
        0.2665739059448242,
        -0.13458748161792755,
        -0.12530523538589478,
        -0.626461923122406,
        0.05339201167225838,
        -0.21202106773853302,
        0.09103471785783768,
        0.06686840951442719,
        -0.7073109149932861,
        -0.2650534510612488,
        -0.28041496872901917,
        0.046906981617212296,
        0.04443277791142464,
        -0.6379326581954956,
        -0.021908635273575783,
        0.088372603058815,
        -0.10714447498321533,
        -0.034400131553411484,
        0.6007726788520813,
        0.09321005642414093,
        0.12732669711112976,
        0.2101166695356369,
        0.0569193959236145,
        0.25946342945098877,
        -0.024326635524630547,
        0.23508134484291077,
        0.136469766497612,
        0.18304000794887543,
        0.2884977459907532,
        0.27850964665412903,
        0.06485126912593842,
        0.3186420500278473,
        -0.22775793075561523,
        0.08614905178546906,
        -0.3970392346382141,
        0.23816794157028198,
        0.049561791121959686,
        -0.3610245883464813,
        -0.6195274591445923,
        0.04701392352581024,
        -0.0029385974630713463,
        -0.21438190340995789,
        -0.32822197675704956,
        0.051753152161836624,
        0.1618487685918808,
        0.6454298496246338,
        -0.1543491631746292,
        -0.5210042595863342,
        -0.47609493136405945,
        -0.31756243109703064,
        -0.7430090308189392,
        0.2235688418149948,
        0.007547152228653431,
        0.10882501304149628,
        -0.017351994290947914,
        0.1689256727695465,
        0.10139282047748566,
        -0.44791170954704285,
        -0.280584454536438,
        -0.10171987116336823,
        -0.581014096736908,
        0.06732520461082458,
        -0.3330124616622925,
        -0.0025044926442205906,
        0.24992413818836212,
        0.2542504370212555,
        0.03814416751265526,
        0.19478780031204224,
        0.2376132756471634,
        0.13483819365501404,
        0.0369526632130146,
        0.056366365402936935,
        -0.12471041083335876,
        -0.0687447115778923,
        0.23237164318561554,
        0.4680688679218292,
        -0.037640612572431564,
        -0.12420237064361572,
        0.0005537626566365361,
        -0.04034165292978287,
        0.299163818359375,
        -0.19202646613121033,
        -0.15933549404144287,
        0.2085873931646347,
        -0.6682305335998535,
        -0.45174047350883484,
        -0.3287121057510376,
        0.5133991241455078,
        -0.36206692457199097,
        -0.13719947636127472,
        0.10860709100961685,
        0.272453248500824,
        -0.0941707044839859,
        -0.09501665830612183,
        -0.3559761047363281,
        0.019797172397375107,
        -0.9694359302520752,
        -0.8799957633018494,
        -0.26078319549560547,
        0.2481413036584854,
        0.1351853758096695,
        0.30707037448883057,
        -0.42662328481674194,
        0.7096133828163147,
        -0.45316416025161743,
        0.3019636571407318,
        -0.07018904387950897,
        -0.3669120669364929,
        -0.023754164576530457,
        0.18111272156238556,
        -0.21606455743312836,
        -0.40365493297576904,
        -0.00935572199523449,
        0.05289898067712784,
        -0.7178541421890259,
        -0.057567812502384186,
        -0.29652735590934753,
        -0.09894461929798126,
        -0.0705428421497345,
        0.15785416960716248,
        -0.30036094784736633,
        0.19435341656208038,
        0.1871498078107834,
        -0.13086386024951935,
        -0.3770926296710968,
        -0.4301880896091461,
        -0.3570277988910675,
        -0.051536981016397476,
        -0.25261780619621277,
        0.010759741999208927,
        -0.7512837052345276,
        0.16033363342285156,
        0.1077917143702507,
        0.17859657108783722,
        -0.26254981756210327,
        -0.1764795184135437,
        -0.02552724815905094,
        -0.13871897757053375,
        0.453620582818985,
        0.48564839363098145,
        -0.3439124822616577,
        -0.16009873151779175,
        0.12782073020935059,
        0.40359681844711304,
        -0.12966610491275787,
        0.1275736391544342,
        -0.23671938478946686,
        0.10328999161720276,
        -0.4602629542350769,
        -0.4339725375175476,
        -0.1740129441022873,
        -0.05673103407025337,
        -0.12041474133729935,
        0.11072170734405518,
        0.5779016613960266,
        -0.38874080777168274,
        0.12062419950962067,
        0.21558377146720886,
        0.04318343847990036,
        0.06148592382669449,
        -0.4911443293094635,
        -0.3464912176132202,
        -0.08371235430240631,
        0.20145009458065033,
        0.11975626647472382,
        0.2388332039117813,
        0.46054866909980774,
        -0.10989546775817871,
        -0.8381125330924988,
        0.18193820118904114,
        0.49432915449142456,
        -0.2477649301290512,
        0.4278164505958557,
        -0.3675248622894287,
        0.13132400810718536,
        0.07783253490924835,
        -0.2951715588569641,
        0.04488743096590042,
        0.22494463622570038,
        -0.015910649672150612,
        0.25988736748695374,
        0.0810573548078537,
        0.15888993442058563,
        -0.12252109497785568,
        0.09094759076833725,
        0.053258124738931656,
        0.05157708376646042,
        -0.22705130279064178,
        0.18403777480125427,
        0.26640814542770386,
        0.12411751598119736,
        0.11781830340623856,
        -0.0697471871972084,
        -0.27146753668785095,
        -0.19368942081928253,
        -0.011521914973855019,
        -1.3672406673431396,
        0.2833869159221649,
        -0.014023881405591965,
        0.37307941913604736,
        0.18786101043224335,
        -0.6133070588111877,
        0.4473603069782257,
        -0.16851921379566193,
        -0.09073273837566376,
        -0.17788949608802795,
        0.11472533643245697,
        -1.0989149808883667,
        -0.263301819562912,
        -0.1806475669145584,
        -0.16615308821201324,
        0.033469293266534805,
        -0.6049157381057739,
        0.4712550938129425,
        -0.17679961025714874,
        0.10006499290466309,
        -0.00655187014490366,
        0.24340471625328064,
        0.0002835543709807098,
        0.17517627775669098,
        0.08280353993177414,
        0.121212899684906,
        -0.554375946521759,
        0.4621911644935608,
        -0.0831880271434784,
        0.23567552864551544,
        0.04787711426615715,
        0.056497227400541306,
        -0.46138349175453186,
        -0.18139658868312836,
        -0.26836198568344116,
        0.21207565069198608,
        0.10250885039567947,
        -0.005168569274246693,
        -0.033380020409822464,
        0.28146037459373474,
        0.18524011969566345,
        -0.39083003997802734,
        -0.09322770684957504,
        -0.07307235151529312,
        -1.043439507484436,
        0.06495865434408188,
        -0.2708202600479126,
        -0.25302115082740784,
        0.5829190015792847,
        -0.014632766135036945,
        -0.40401318669319153,
        0.3418952524662018,
        0.1409747451543808,
        -0.008687753230333328,
        0.11807160079479218,
        -0.26204657554626465,
        -0.14726176857948303,
        -0.12349574267864227,
        -0.12251430749893188,
        -0.009836534038186073,
        0.06501157581806183,
        -0.22413946688175201,
        0.005551795940846205,
        0.1111297458410263,
        0.08869704604148865,
        -0.6183386445045471,
        0.014637765474617481,
        -0.2830912172794342,
        0.31805723905563354,
        0.4836549758911133,
        0.11694758385419846,
        -0.7093483209609985,
        -0.35340937972068787,
        0.5724104642868042,
        -0.2043115198612213,
        0.04377041757106781,
        0.261158287525177,
        -0.15720760822296143,
        0.2477322369813919,
        0.11863328516483307,
        -0.18017578125,
        0.019707592204213142,
        -0.36783871054649353,
        -0.23620839416980743,
        -0.19853475689888,
        -0.5370045304298401,
        -0.23665182292461395,
        0.36878564953804016,
        -0.03261882811784744,
        0.10486189275979996,
        -0.3357493281364441,
        0.2037842869758606,
        -0.3862569034099579,
        0.16394543647766113,
        -0.20459739863872528,
        0.2012861669063568,
        0.02004585601389408,
        -0.04292036592960358,
        -0.2476886361837387,
        0.106378473341465,
        -0.2809861898422241,
        -0.29397886991500854,
        -0.18436434864997864,
        -0.17426937818527222,
        0.3940443694591522,
        -0.03322381526231766,
        -0.008831829763948917,
        -0.06421028077602386,
        0.11069448292255402,
        -0.17247653007507324,
        0.1330895870923996,
        -0.015389740467071533,
        0.41211551427841187,
        0.23167011141777039,
        0.8301315307617188,
        -0.12796735763549805,
        -0.28344523906707764,
        0.35379618406295776,
        -0.3400898575782776,
        0.06927835196256638,
        0.39157789945602417,
        0.01998342201113701,
        -0.9128579497337341,
        -0.4320969879627228,
        -0.1374209225177765,
        -0.04992322251200676,
        0.36114779114723206,
        0.17727085947990417,
        0.3070475459098816,
        -0.44546839594841003,
        0.1489328145980835,
        -0.33684349060058594,
        -0.150452122092247,
        0.5755435824394226,
        -0.08367915451526642,
        -0.03797321394085884,
        -0.31596940755844116,
        -0.04852743819355965,
        0.11295553296804428,
        -0.13581275939941406,
        -0.2670736610889435,
        -0.012003840878605843,
        -0.4046425521373749,
        -0.815913736820221,
        0.05579540878534317,
        0.019779300317168236,
        0.14506392180919647,
        0.33303192257881165,
        0.30270323157310486,
        -0.39216336607933044,
        0.21658512949943542,
        -0.05067678540945053,
        0.1885232925415039,
        0.01993328146636486,
        0.03177450969815254,
        -0.1319039762020111,
        -0.03650679811835289,
        -0.3043501079082489,
        0.6111361384391785,
        0.07001344859600067,
        0.12360887974500656,
        -0.06569912284612656,
        0.22824051976203918,
        -0.11542918533086777,
        0.13493795692920685,
        -0.0980340987443924,
        -0.29767468571662903,
        -0.0055333832278847694,
        0.3426893949508667,
        0.05446304753422737,
        0.07665274292230606,
        -0.30558955669403076,
        0.09429598599672318,
        -0.24713285267353058,
        0.5146377682685852,
        0.16660937666893005,
        -0.1653120070695877,
        -0.18631985783576965,
        0.09957930445671082,
        0.030099596828222275,
        0.2307477593421936,
        -0.312605619430542,
        0.2805339992046356,
        1.1687097549438477,
        -0.11809629946947098,
        -0.15979500114917755,
        -0.15276776254177094,
        0.13255544006824493,
        -0.32864734530448914,
        -0.012218640185892582,
        0.13382399082183838,
        -0.15727628767490387,
        -0.08512448519468307,
        -0.11814801394939423,
        -0.07995027303695679,
        -0.6339260935783386,
        -0.383296936750412,
        -0.14592862129211426,
        0.30639752745628357,
        0.4859764873981476,
        -0.21161668002605438,
        0.1825152486562729,
        -0.03135253116488457,
        0.16363663971424103,
        0.6474440693855286,
        -0.04123217985033989,
        -0.1655389368534088,
        -0.2729951739311218,
        -0.5591880083084106,
        -0.46744248270988464,
        -0.8251672983169556,
        -0.3255712389945984,
        0.16235022246837616,
        0.0839872881770134,
        -0.3180008828639984,
        0.10268988460302353,
        -0.05504099279642105,
        0.19464723765850067,
        -0.3595273196697235,
        -0.2880878746509552,
        -0.2950880825519562,
        0.636716902256012,
        0.1585538387298584,
        -0.21469804644584656,
        -0.23852083086967468,
        -0.017926108092069626,
        0.12513241171836853,
        -0.09329137951135635,
        -0.19682107865810394,
        -0.28399452567100525,
        0.2365616410970688,
        -0.20483344793319702,
        0.40240395069122314,
        -0.13345882296562195,
        -0.5238956809043884,
        -0.21892325580120087,
        0.0038744169287383556,
        0.01719856821000576,
        0.030442070215940475,
        0.03400125727057457,
        0.420663446187973,
        0.21498245000839233,
        -0.15501409769058228,
        -0.21390213072299957,
        -0.45927318930625916,
        -0.15648072957992554,
        0.003800962120294571,
        0.1351434290409088,
        -0.27270743250846863,
        -0.48007139563560486,
        -0.096295066177845,
        -0.11717868596315384,
        -0.18871565163135529,
        0.15894518792629242,
        -0.35345277190208435,
        0.23649607598781586,
        0.053672291338443756,
        0.46903449296951294,
        0.05469144880771637,
        0.10852699726819992,
        -0.2023761123418808,
        -0.34002992510795593,
        0.20716574788093567,
        0.0377616360783577,
        -0.10876995325088501,
        -0.37990832328796387,
        0.5391952991485596,
        0.3991459012031555,
        -0.30707862973213196,
        0.05314154177904129,
        -0.24867810308933258,
        0.32656294107437134,
        -0.39968377351760864,
        1.153125524520874,
        0.33083289861679077,
        -0.2176099270582199,
        -0.08758095651865005,
        -0.11327295750379562,
        0.47374317049980164,
        -0.09143068641424179,
        -0.40225714445114136,
        0.20954129099845886,
        0.28783753514289856,
        -0.2508701682090759,
        -0.17909811437129974,
        0.041584793478250504,
        -0.04706369340419769,
        0.08953060954809189,
        -0.16674481332302094,
        -0.28145831823349,
        0.1445777714252472,
        -0.1192983016371727,
        -0.0487944595515728,
        0.17029379308223724,
        0.0971563532948494,
        -0.4943443834781647,
        -0.06718067079782486,
        -0.19459114968776703,
        -0.3570622503757477,
        0.2661336362361908,
        -1.0010097026824951,
        0.37135061621665955,
        -0.23583419620990753,
        0.0950382649898529,
        -0.10858217626810074,
        -0.1846596896648407,
        -0.2001124918460846,
        -0.05109125003218651,
        -0.06390313804149628,
        -0.03422463685274124,
        -0.23727566003799438,
        0.064298614859581,
        -0.07969202846288681,
        0.058315735310316086,
        0.23873981833457947,
        -0.21668438613414764,
        0.04073726758360863,
        -0.4800897538661957,
        -0.11486874520778656,
        0.17810742557048798,
        -1.5246429443359375,
        -0.3483041822910309,
        0.21564799547195435,
        -0.12853865325450897,
        -0.18904587626457214,
        0.21584880352020264,
        0.26878637075424194,
        0.25953224301338196,
        0.03166819363832474,
        -0.15399621427059174,
        0.49699267745018005,
        -0.3017820715904236,
        0.10812559723854065,
        -0.1820649355649948,
        0.5166099071502686,
        0.2682581841945648,
        0.18347491323947906,
        0.2231912910938263,
        -0.09150705486536026,
        -0.028447721153497696,
        -0.4175103008747101,
        0.4088035523891449,
        0.0015357048250734806,
        0.11521004885435104,
        -0.7108266353607178,
        -0.04910435900092125,
        0.10005417466163635,
        -0.026547985151410103,
        0.00030644063372164965,
        -0.09934626519680023,
        -0.3985496759414673,
        0.035253219306468964,
        0.3040051758289337,
        -0.23442783951759338,
        0.49223315715789795,
        -0.0413069985806942,
        -0.2749531865119934,
        0.006419769953936338,
        0.11249814182519913,
        0.21330411732196808,
        -0.013601476326584816,
        0.0030861988198012114,
        0.46133267879486084,
        0.2822336256504059,
        -0.1454494446516037,
        0.23609381914138794,
        0.32667723298072815,
        0.37950462102890015,
        -0.2394704967737198,
        -0.7042211294174194,
        -0.009046749211847782,
        -0.5857831239700317,
        0.14831984043121338,
        0.252486914396286,
        -0.3429628610610962,
        -0.18106529116630554,
        -0.1568320393562317,
        0.33317601680755615,
        -0.005244310945272446,
        -0.08336897194385529,
        0.36014920473098755,
        0.11223947256803513,
        0.5316445231437683,
        0.3277674615383148,
        0.12193233519792557,
        0.14075309038162231,
        0.0814446359872818,
        -0.2541443705558777,
        -0.6483081579208374,
        0.4072286784648895,
        0.15879328548908234,
        -0.3244452476501465,
        0.42499956488609314,
        0.2546738386154175,
        -0.42968297004699707,
        -0.17102856934070587,
        0.3071630895137787,
        -0.1405886858701706,
        0.07447849959135056,
        -0.565401554107666,
        0.1775064915418625,
        -0.36315223574638367,
        0.2819344401359558,
        -0.4225546419620514,
        0.01666407473385334,
        -0.7759966850280762,
        0.07626672089099884,
        0.34091344475746155,
        -0.1952124685049057,
        0.1708936095237732,
        -0.6170964241027832,
        0.11220115423202515,
        -0.17259512841701508,
        0.297831654548645,
        -0.09636759757995605,
        0.0609627403318882,
        0.1374536156654358,
        0.03932075574994087,
        0.37784603238105774,
        -0.34402939677238464,
        0.22048510611057281,
        0.2155940681695938,
        -0.28651750087738037,
        -0.32504895329475403,
        -0.2334805130958557,
        0.19522082805633545,
        -0.3150164783000946,
        0.3506513237953186,
        -0.2169329822063446,
        -0.20267373323440552,
        0.31153640151023865,
        0.19422313570976257,
        -0.19382481276988983,
        -0.01579444296658039,
        -0.2035714089870453,
        0.1515873670578003,
        0.18937212228775024,
        -0.07375828176736832,
        0.2540991008281708,
        -1.4975804090499878,
        0.15906262397766113,
        0.4533042311668396,
        0.0795975774526596,
        -0.1230088621377945,
        -0.22267530858516693,
        0.13551875948905945,
        -0.3723432719707489,
        0.1368762105703354,
        -0.3451043367385864,
        0.19901025295257568,
        -0.04134232923388481,
        -0.5213854908943176,
        -0.19625255465507507,
        -0.02033807523548603,
        -0.15784752368927002,
        0.7976596355438232,
        0.21251213550567627,
        -0.1804000586271286,
        0.43890243768692017,
        0.10670501738786697,
        -0.5360759496688843,
        -0.1911797821521759,
        0.06750659644603729,
        -0.7021726369857788,
        -0.24905942380428314,
        0.15387210249900818,
        0.44475287199020386,
        0.09284672886133194,
        0.10861571878194809,
        0.009364480152726173,
        -0.47602853178977966,
        0.3566601574420929,
        -0.1558040827512741,
        -0.2500529885292053,
        -0.7683951258659363,
        0.12161682546138763,
        0.18534724414348602,
        -0.09725235402584076,
        0.0032886462286114693,
        0.24693937599658966,
        -0.10289670526981354,
        0.24199336767196655,
        -0.4069245457649231,
        -0.05553851276636124,
        -0.23611710965633392,
        -0.5135484933853149,
        -0.30873337388038635,
        0.3444865345954895,
        -0.6335265636444092,
        0.11834423989057541,
        -0.2972944974899292,
        -0.08457506448030472,
        -0.27250921726226807,
        0.2570516765117645,
        -0.1481323540210724,
        0.13085879385471344,
        -0.40307852625846863,
        0.25187355279922485,
        -0.38147884607315063,
        -0.26641058921813965,
        0.11819880455732346,
        -0.06777512282133102,
        -0.10079028457403183,
        -0.5111854672431946,
        -0.15584711730480194,
        -0.07612744718790054,
        -0.10062912851572037,
        -0.200932577252388,
        0.16821926832199097,
        -0.14794792234897614,
        -0.37642478942871094,
        0.09637470543384552,
        -0.0031920706387609243,
        0.1748519092798233,
        0.3312918245792389,
        0.39761635661125183,
        0.17538242042064667,
        0.27471619844436646,
        -0.03895661234855652,
        -0.37529483437538147,
        0.059295445680618286,
        0.19788630306720734,
        0.18937326967716217,
        -0.017097108066082,
        -0.45780694484710693,
        0.09641002118587494,
        0.19261996448040009,
        0.17150744795799255,
        -0.294464647769928,
        0.34699732065200806,
        0.5461311936378479,
        -0.17383477091789246,
        -2.0032973289489746,
        0.16378279030323029,
        -0.02783709391951561,
        0.14732833206653595,
        0.09367144852876663,
        -0.04668765142560005,
        -0.11083685606718063,
        0.25423672795295715,
        -0.16016234457492828,
        -0.7583808898925781,
        -0.5657652616500854,
        -0.6234553456306458,
        0.06461776047945023,
        -0.13058097660541534,
        -0.26414820551872253,
        0.1635192483663559,
        0.08348909765481949,
        0.05955810099840164,
        0.06251578778028488,
        0.5141507983207703,
        0.29628995060920715,
        -0.4070121645927429,
        -0.044078342616558075,
        -0.2316015660762787,
        -0.7019572854042053,
        0.24031974375247955,
        0.32575464248657227,
        -0.2119588851928711,
        0.2825514078140259,
        -0.6176114678382874,
        -0.566206157207489,
        -0.008149745874106884,
        0.3695456087589264,
        0.11426809430122375,
        0.08696965873241425,
        -0.09613987803459167,
        -0.013370350003242493,
        0.05442004278302193,
        -0.26278913021087646,
        0.2588539719581604,
        0.18372105062007904,
        -0.2594582736492157,
        -0.08259531110525131,
        -0.2194328010082245,
        -0.23282162845134735,
        -0.15226511657238007,
        0.1821449249982834,
        -0.3781999945640564,
        0.1188373938202858,
        -0.11569531261920929,
        -0.14235016703605652,
        -0.4363456964492798,
        -0.0769382119178772,
        0.23635591566562653,
        -0.14697781205177307,
        0.29438716173171997,
        -0.09577049314975739,
        -0.13923324644565582,
        0.33817097544670105,
        0.4616284966468811,
        -0.05461674928665161,
        -0.029866352677345276,
        -0.08393140137195587,
        0.005936948582530022,
        0.4823974668979645,
        -0.880541980266571,
        -0.023465147241950035,
        0.02920321188867092,
        -0.01621880568563938,
        -0.3182174563407898,
        -0.03548787534236908,
        -0.004497867543250322,
        -0.10946641862392426,
        0.23877044022083282,
        -0.03466833382844925,
        0.15189334750175476,
        0.18368297815322876,
        -0.15810908377170563,
        -0.1815718561410904,
        -0.11051425337791443,
        -0.44812440872192383,
        -0.05042992904782295,
        0.3027154505252838,
        -0.2223796546459198,
        0.6405497789382935,
        -0.2791457176208496,
        0.01724161021411419,
        0.1471274495124817,
        -0.10525161027908325,
        0.19203749299049377,
        0.1710328608751297,
        0.2879745662212372,
        0.18679863214492798,
        0.23333172500133514,
        0.2758100926876068,
        0.12141868472099304,
        -0.5918624401092529,
        0.2534142732620239,
        0.2514013350009918,
        -0.13405419886112213,
        0.18026402592658997,
        -0.08354983478784561,
        0.14360322058200836,
        0.66932612657547,
        -0.24983403086662292,
        0.32876598834991455,
        -0.012986957095563412,
        -0.22264952957630157,
        0.05799302086234093,
        0.01658700220286846,
        0.00864371843636036,
        0.06321396678686142,
        -0.41660138964653015,
        -0.0978790670633316,
        0.05622098222374916,
        -0.1381789892911911,
        -0.09398875385522842,
        0.09271996468305588,
        0.7760594487190247,
        -0.4517713189125061,
        -0.03881729766726494,
        0.191137433052063,
        0.5839545130729675,
        -0.08828712999820709,
        -0.08860711753368378,
        0.4276179075241089,
        0.1479206532239914,
        0.09143637865781784,
        -0.14878380298614502,
        -0.11679015308618546,
        0.3260416090488434,
        -0.18558551371097565,
        -0.01998862251639366,
        0.705547571182251,
        0.40839990973472595,
        0.333255797624588,
        -0.0830581858754158,
        -0.23481185734272003,
        -0.35086989402770996,
        -0.3159582316875458,
        0.12744982540607452,
        -0.15075039863586426,
        0.4003010392189026,
        -0.075376957654953,
        -0.02111615613102913,
        -0.23113253712654114,
        0.07493767142295837,
        -0.24386334419250488,
        -0.512664258480072,
        -0.027284549549221992,
        0.1495828777551651,
        -0.07253024727106094,
        0.0029756748117506504,
        0.00033767687273211777,
        -0.18468855321407318,
        -0.3050215542316437,
        -0.22769445180892944,
        0.0936947762966156,
        0.2107274830341339,
        0.36696889996528625,
        -0.7114691734313965,
        0.27257412672042847,
        0.38664254546165466,
        0.024312077090144157,
        -0.3454623818397522,
        0.3300808072090149,
        0.01433162484318018,
        -0.2814215123653412,
        -0.001261438592337072,
        0.25025174021720886,
        0.3317044675350189,
        -0.38006317615509033,
        0.10284112393856049,
        0.36350253224372864,
        -0.4715133309364319,
        0.4584426283836365,
        -0.2956889867782593,
        -0.23392675817012787,
        -0.10236193984746933,
