{
  "input_sequences": [],
  "inputs": [
    {
      "name": "input",
      "variables": [
        {
          "name": "seed_chi2PerDoF",
          "offset": -1.23350879,
          "scale": 2.6561030261991094
        },
        {
          "name": "seed_p",
          "offset": -3.89077256,
          "scale": 2.271078005556556
        },
        {
          "name": "seed_pt",
          "offset": -3.08250979,
          "scale": 4.836258084591281
        },
        {
          "name": "seed_x",
          "offset": 3.58761813,
          "scale": 0.0013918681554568892
        },
        {
          "name": "seed_y",
          "offset": -1.0987292,
          "scale": 0.0019809830264956698
        },
        {
          "name": "seed_tx",
          "offset": 0.00422249,
          "scale": 3.381023000862803
        },
        {
          "name": "seed_ty",
          "offset": -0.00013073,
          "scale": 15.415774221804009
        },
        {
          "name": "seed_angle",
          "offset": -0.00140145,
          "scale": 1.383899891
        },
        {
          "name": "seed_pr",
          "offset": -0.22914613,
          "scale": 5.600256805
        },
        {
          "name": "seed_z_magnet",
          "offset": -0.57604572,
          "scale": 23.068359392
        },
        {
          "name": "seed_r",
          "offset": -707.61042581,
          "scale": 0.001923405
        }
      ]
    }
  ],
  "layers": [
    {
      "activation": "rectified",
      "architecture": "dense",
      "bias": [
        -0.008234994485974312,
        -0.8922253251075745,
        0.19162559509277344,
        0.8670702576637268,
        1.3973829746246338,
        -0.8124517202377319,
        -0.6970749497413635,
        -0.17308811843395233,
        -0.8138560652732849,
        -0.07400446385145187,
        -0.5892289876937866,
        1.122754693031311,
        -1.7042685747146606,
        -0.4993645250797272,
        -0.13970550894737244,
        0.3377840220928192,
        -0.8270446062088013,
        -1.4336295127868652,
        -0.42383068799972534,
        -0.25200650095939636,
        -1.2571295499801636,
        -1.1571460962295532,
        -0.45871224999427795,
        -0.8410467505455017,
        -0.7349821329116821,
        -0.9062997102737427,
        0.24741904437541962,
        -1.0118917226791382,
        -0.2424996793270111,
        0.05601966008543968,
        -2.2278950214385986,
        0.295011430978775,
        -0.6460174918174744,
        -0.7305763363838196,
        -0.7496170401573181,
        0.10197669267654419,
        1.179973840713501,
        -1.8989309072494507,
        -0.7973699569702148,
        -0.48010966181755066,
        0.05715825781226158,
        -1.1540868282318115,
        -0.5821763873100281,
        -1.7099334001541138,
        0.09994342923164368,
        0.3985966444015503,
        0.13442394137382507,
        -1.8813650608062744,
        -0.3834007978439331,
        -1.4738914966583252,
        0.2511638104915619,
        -0.3401604890823364,
        -1.0291917324066162,
        -0.8020569086074829,
        -0.4283522665500641,
        1.3840758800506592,
        -0.15471702814102173,
        -0.11138199269771576,
        -1.4365898370742798,
        -0.5140464305877686,
        -0.6240188479423523,
        0.20455102622509003,
        -0.8503866791725159,
        0.4608573019504547,
        -0.6742321848869324,
        -0.06762140244245529,
        -0.3021119236946106,
        -1.0174587965011597,
        -0.45483919978141785,
        -0.21597003936767578,
        -0.15070794522762299,
        -1.1838935613632202,
        -0.6026411652565002,
        -0.1661292016506195,
        -1.3049768209457397,
        0.7210837006568909,
        -1.3510262966156006,
        -0.8799372315406799,
        -0.057504985481500626,
        -0.7027506828308105,
        0.7471622824668884,
        0.6467081904411316,
        -0.13349319994449615,
        -0.3597935140132904,
        -0.25792765617370605,
        0.19085825979709625,
        -2.266623020172119,
        -0.8919482827186584,
        0.7842896580696106,
        -1.144901156425476,
        -1.2519336938858032,
        -1.047054409980774,
        -0.6064813137054443,
        -0.8729592561721802,
        0.08727861940860748,
        -0.8644658923149109,
        0.4751645624637604,
        -0.16564640402793884,
        -0.666208803653717,
        0.015664462000131607
      ],
      "weights": [
        0.0012202908983454108,
        -0.3593454360961914,
        -1.5409373044967651,
        -0.015951111912727356,
        0.09683653712272644,
        0.022709615528583527,
        -0.002336462028324604,
        -0.024133916944265366,
        -0.9026530385017395,
        0.05684822425246239,
        1.3203423023223877,
        0.0077942912466824055,
        0.21017403900623322,
        -1.1107145547866821,
        -0.4428422451019287,
        -0.18793179094791412,
        0.4649691879749298,
        -1.205161690711975,
        -1.4919416904449463,
        0.2221599966287613,
        0.6821295022964478,
        -0.42180123925209045,
        0.015445251949131489,
        0.5029650926589966,
        -1.1573612689971924,
        0.0068933991715312,
        0.3315625786781311,
        -0.0345727875828743,
        -0.9016306400299072,
        -0.24822808802127838,
        1.3081600666046143,
        0.05744025111198425,
        -1.4011379480361938,
        0.1111244335770607,
        0.42072129249572754,
        -0.45849454402923584,
        0.22879241406917572,
        -0.8769972920417786,
        -0.2444249987602234,
        0.8063378930091858,
        0.04521850869059563,
        -1.5589977502822876,
        -0.04741983488202095,
        1.0803338289260864,
        -0.03876345977187157,
        0.42036736011505127,
        -0.2511715590953827,
        -0.04049430042505264,
        2.063621759414673,
        -0.07413957267999649,
        2.4986541271209717,
        0.03879334405064583,
        0.2899762988090515,
        0.07717067748308182,
        0.0007206343580037355,
        -0.0157160684466362,
        -0.940066397190094,
        0.3906065821647644,
        -0.09884259849786758,
        0.10306951403617859,
        0.1253584325313568,
        -0.1787913739681244,
        2.336756944656372,
        -0.6354005336761475,
        0.21629035472869873,
        0.3378724753856659,
        1.702612280845642,
        -0.019688032567501068,
        0.2881934344768524,
        -0.03702845051884651,
        -0.5360868573188782,
        0.08372660726308823,
        -0.8113537430763245,
        -0.21487857401371002,
        -0.44342121481895447,
        -0.40088820457458496,
        1.057706356048584,
        0.0059653036296367645,
        -0.31239792704582214,
        1.1855465173721313,
        -0.4542049467563629,
        -0.7822586297988892,
        0.6031966209411621,
        0.06868113577365875,
        0.1644180566072464,
        -0.6262909770011902,
        -1.112982988357544,
        1.4135257005691528,
        -0.004734178073704243,
        0.5708557367324829,
        -0.6366117000579834,
        -1.0488919019699097,
        1.5415866374969482,
        -0.7699940204620361,
        0.49300163984298706,
        -0.5386052131652832,
        0.04800552502274513,
        0.1818636804819107,
        -1.242140531539917,
        -0.003872108180075884,
        -0.589837908744812,
        0.777493417263031,
        -0.455268532037735,
        0.8338431715965271,
        0.4392980933189392,
        0.16027067601680756,
        -0.15198862552642822,
        -1.4146037101745605,
        0.5508219599723816,
        0.7438501715660095,
        1.8460720777511597,
        1.0029337406158447,
        -0.17930394411087036,
        0.4596060514450073,
        1.0981438159942627,
        -0.49446457624435425,
        0.2469937652349472,
        0.013890390284359455,
        0.29196056723594666,
        -0.19425444304943085,
        -0.4071997404098511,
        0.2852122187614441,
        -0.9390335083007812,
        -1.4322680234909058,
        -0.37236568331718445,
        -0.4005892872810364,
        0.3212409019470215,
        0.8198519349098206,
        -0.1164572611451149,
        0.5599130988121033,
        1.020215392112732,
        -0.8580873012542725,
        0.28008097410202026,
        -0.05094379186630249,
        0.7141252160072327,
        -0.08876373618841171,
        0.8044242858886719,
        -0.3347553610801697,
        1.9306905269622803,
        0.1843501329421997,
        0.08113455027341843,
        0.2840125262737274,
        -0.06811831891536713,
        0.024928471073508263,
        0.5131247043609619,
        -0.6328710317611694,
        0.8648396730422974,
        1.6247450113296509,
        0.4352368712425232,
        0.624334990978241,
        0.27778592705726624,
        0.03608388453722,
        0.40888381004333496,
        -1.2174333333969116,
        -0.040778905153274536,
        -0.49768683314323425,
        0.1425207108259201,
        -0.17877592146396637,
        -0.33536091446876526,
        0.6964218020439148,
        -0.41777515411376953,
        3.3683860301971436,
        0.4228099286556244,
        -0.06277425587177277,
        -0.8625332713127136,
        0.03112119808793068,
        -0.08541232347488403,
        0.007945653051137924,
        -0.052318841218948364,
        -1.934089183807373,
        -0.008169482462108135,
        1.6745696067810059,
        0.002659090328961611,
        -0.0809275358915329,
        -0.15991196036338806,
        0.12748557329177856,
        -0.2354356050491333,
        0.7567571401596069,
        1.11827552318573,
        0.0017934245988726616,
        0.4318450689315796,
        -0.008330019190907478,
        -0.5051926374435425,
        -0.08103592693805695,
        1.0340566635131836,
        0.28632381558418274,
        1.609053611755371,
        1.3112399578094482,
        0.024751953780651093,
        -0.6220285296440125,
        0.123973548412323,
        0.8689138889312744,
        0.35360267758369446,
        0.32748040556907654,
        -0.9515203833580017,
        0.11316506564617157,
        0.13539893925189972,
        -0.23680433630943298,
        0.245077982544899,
        1.1727849245071411,
        0.676654040813446,
        -0.8996970653533936,
        -1.0978479385375977,
        0.7395955920219421,
        0.1382274627685547,
        0.2782440185546875,
        -0.876089870929718,
        -1.110019564628601,
        0.08466950058937073,
        0.49088412523269653,
        0.029358278959989548,
        1.1108441352844238,
        0.05951918289065361,
        0.16060952842235565,
        0.1120571568608284,
        -0.0790567547082901,
        0.41600486636161804,
        2.648855209350586,
        0.022475460544228554,
        -0.7236189842224121,
        -0.05966029316186905,
        -0.6104933619499207,
        -0.14588899910449982,
        -0.11095541715621948,
        -0.3723951578140259,
        1.5590174198150635,
        0.3701740801334381,
        0.7547061443328857,
        -0.2469257414340973,
        -0.7398011088371277,
        -0.06936982274055481,
        0.04270618036389351,
        -0.7043460607528687,
        0.22308972477912903,
        -0.02047872543334961,
        1.3146891593933105,
        0.07315486669540405,
        1.1722735166549683,
        -0.003598354058340192,
        0.04071701690554619,
        0.7510497570037842,
        -1.4751908779144287,
        -0.014447588473558426,
        0.8198471069335938,
        -0.5226603150367737,
        -1.1812939643859863,
        -2.191342353820801,
        -0.29697081446647644,
        -0.039543889462947845,
        0.4135490655899048,
        -0.008307299576699734,
        0.26608869433403015,
        -0.8333644866943359,
        -0.022257236763834953,
        0.363582044839859,
        -0.3942398726940155,
        0.01936991699039936,
        -2.086071729660034,
        0.015215560793876648,
        -2.7648956775665283,
        -0.06727173924446106,
        -0.33241593837738037,
        0.7988560795783997,
        0.4575482904911041,
        -0.00993647426366806,
        -1.2531404495239258,
        0.9257082939147949,
        -0.24852871894836426,
        0.24287086725234985,
        0.1915949434041977,
        -0.41109931468963623,
        -1.4542032480239868,
        -0.8395208120346069,
        0.387408047914505,
        0.08786684274673462,
        -0.06013944745063782,
        0.5321435928344727,
        -0.790954053401947,
        -0.3480450510978699,
        0.5772123336791992,
        0.46938395500183105,
        -0.49053955078125,
        0.05050145462155342,
        0.5669476389884949,
        -1.267883062362671,
        -1.2353794574737549,
        0.8020031452178955,
        0.5247631669044495,
        0.5154656171798706,
        -0.22621287405490875,
        0.7154421806335449,
        0.2693673074245453,
        -0.2763250768184662,
        0.04031367972493172,
        0.4496827721595764,
        1.326550006866455,
        -1.3406153917312622,
        0.3235269784927368,
        -1.9759010076522827,
        -0.96877121925354,
        0.17623937129974365,
        0.48872172832489014,
        -0.4910081923007965,
        -0.555849015712738,
        -0.26856711506843567,
        0.5602496266365051,
        -0.7338594794273376,
        -0.5642615556716919,
        -0.0018661774229258299,
        -1.586983323097229,
        -0.7175992131233215,
        -0.11028524488210678,
        -1.0810662508010864,
        0.10488881170749664,
        -0.5594621300697327,
        0.0013657516101375222,
        -0.1489102691411972,
        0.5718148946762085,
        -1.3219871520996094,
        -0.07131314277648926,
        -0.11030586063861847,
        1.065720558166504,
        -0.12101274728775024,
        -0.24103789031505585,
        -0.13436433672904968,
        -0.20555733144283295,
        -0.9592469930648804,
        1.589334487915039,
        -0.0005595412221737206,
        -0.45157602429389954,
        -0.04199635982513428,
        -1.2973905801773071,
        -0.10335298627614975,
        0.012054424732923508,
        0.13867206871509552,
        0.021948497742414474,
        -0.2152412235736847,
        -0.07451218366622925,
        0.5896077752113342,
        0.29437804222106934,
        1.303703784942627,
        0.053829923272132874,
        -0.46403494477272034,
        0.7329696416854858,
        -0.05483393743634224,
        0.9747008085250854,
        0.10787981003522873,
        -0.30410847067832947,
        -0.041873201727867126,
        1.3783016204833984,
        -0.6188619136810303,
        -1.4210771322250366,
        0.009936688467860222,
        0.13778358697891235,
        0.02107813209295273,
        2.169816493988037,
        -0.07138780504465103,
        -0.7415841221809387,
        0.04739494249224663,
        0.08917108923196793,
        0.20171529054641724,
        0.0522286482155323,
        -1.1912562847137451,
        -0.3067115247249603,
        -0.1927475482225418,
        -0.01965174823999405,
        -0.8861116766929626,
        0.7508949041366577,
        0.6338047981262207,
        -0.03458251804113388,
        1.3952151536941528,
        -0.08573340624570847,
        1.4260605573654175,
        -0.037361133843660355,
        0.8387552499771118,
        1.4651997089385986,
        -0.015294862911105156,
        -0.029941795393824577,
        -0.17564256489276886,
        0.1294262856245041,
        0.07617252320051193,
        -0.09028171747922897,
        0.4138632118701935,
        0.7228979468345642,
        0.970228910446167,
        -0.25428786873817444,
        0.44365379214286804,
        -0.35958176851272583,
        -0.011614805087447166,
        1.3656096458435059,
        0.010578340850770473,
        -2.1756174564361572,
        0.009151170961558819,
        -0.21032559871673584,
        0.7114043831825256,
        0.3321869671344757,
        0.084078848361969,
        0.23276497423648834,
        -1.0511893033981323,
        -0.20526385307312012,
        0.01637091673910618,
        0.2125806212425232,
        0.10476888716220856,
        -0.03472048044204712,
        -1.0998092889785767,
        -0.3566354513168335,
        1.349426031112671,
        0.11733086407184601,
        0.09615767747163773,
        0.5918461084365845,
        -0.04741954430937767,
        -0.17290839552879333,
        -0.3383702039718628,
        0.017012909054756165,
        -0.18819305300712585,
        0.9462769627571106,
        -0.5853037238121033,
        -0.5877069234848022,
        1.9687234163284302,
        -1.3263046741485596,
        -0.9727351069450378,
        -0.24934229254722595,
        0.2710702121257782,
        0.32078105211257935,
        -0.4525667726993561,
        -0.2745942771434784,
        0.19432559609413147,
        0.39282795786857605,
        -0.2161628156900406,
        0.01695074886083603,
        0.21864044666290283,
        -1.8507391214370728,
        0.16534864902496338,
        -0.04282568022608757,
        -0.22951345145702362,
        -0.05524284020066261,
        0.4308781623840332,
        -0.3319680988788605,
        -0.42708319425582886,
        -1.2613195180892944,
        0.02541799657046795,
        -0.010458757169544697,
        0.006168448831886053,
        0.0021052989177405834,
        2.21761155128479,
        0.005204890388995409,
        -1.7883061170578003,
        -0.0039027086459100246,
        -0.03232416883111,
        0.11913382261991501,
        -0.07887246459722519,
        0.030194630846381187,
        0.7727183103561401,
        -0.22165586054325104,
        0.16348104178905487,
        0.85916668176651,
        -0.4670875072479248,
        -0.7956267595291138,
        -0.06072567030787468,
        -1.0582956075668335,
        -0.07463525235652924,
        0.7826951146125793,
        0.06430990993976593,
        -0.44632747769355774,
        0.25664830207824707,
        1.3670436143875122,
        -0.21847157180309296,
        -1.313109040260315,
        -0.05504452809691429,
        1.0712274312973022,
        -0.25506365299224854,
        0.7552221417427063,
        -0.254092276096344,
        0.2513812184333801,
        0.21563223004341125,
        0.05892258509993553,
        0.08249101042747498,
        0.5910146236419678,
        -0.05140285938978195,
        0.07511589676141739,
        -0.18807734549045563,
        0.028665026649832726,
        -1.3625179529190063,
        0.2546704411506653,
        1.5467898845672607,
        -0.5711925029754639,
        -0.2457716464996338,
        -0.39074864983558655,
        0.8259101510047913,
        -0.5545476078987122,
        1.2998913526535034,
        -0.23910509049892426,
        0.19388656318187714,
        -0.1687214970588684,
        -0.25479045510292053,
        -0.12025100737810135,
        -0.38393262028694153,
        0.5279906988143921,
        0.00012413071817718446,
        -0.4902849495410919,
        0.0016909146215766668,
        2.2996115684509277,
        0.021009989082813263,
        -0.28927791118621826,
        0.8323776721954346,
        -1.0150477886199951,
        -0.21714428067207336,
        -0.9197524189949036,
        1.0764414072036743,
        -0.6335625648498535,
        -0.29724177718162537,
        0.2681959569454193,
        1.3680959939956665,
        0.060805175453424454,
        0.516899824142456,
        -0.8243089914321899,
        0.7109372019767761,
        0.027671674266457558,
        -2.7278614044189453,
        -0.3222845196723938,
        -0.002208593301475048,
        -0.12127240747213364,
        0.0007732438389211893,
        -0.10179437696933746,
        0.18789781630039215,
        0.2725319266319275,
        -0.2874998152256012,
        0.013296031393110752,
        0.07824690639972687,
        -0.37586262822151184,
        0.4782806634902954,
        1.0057625770568848,
        0.26030269265174866,
        -1.4680707454681396,
        -0.16469348967075348,
        -1.2593482732772827,
        -0.5157658457756042,
        0.16532790660858154,
        0.15227407217025757,
        0.019128864631056786,
        -0.344758540391922,
        -0.5386778712272644,
        0.42862680554389954,
        0.6534687280654907,
        -1.1205511093139648,
        -0.35394978523254395,
        0.8669551014900208,
        -0.4087334871292114,
        -0.4757990837097168,
        0.3818943500518799,
        0.09928378462791443,
        -0.15749241411685944,
        0.2707776725292206,
        0.11900262534618378,
        1.2920395135879517,
        -0.15471786260604858,
        -1.809664011001587,
        -0.005763509310781956,
        0.45241081714630127,
        0.32418957352638245,
        -1.0552181005477905,
        -0.001066716737113893,
        0.209075465798378,
        -0.16374556720256805,
        0.12544456124305725,
        0.3067862093448639,
        -0.08270811289548874,
        0.9124950170516968,
        0.031313706189394,
        1.2292680740356445,
        0.10905089229345322,
        -1.7342160940170288,
        0.024697162210941315,
        -0.10403991490602493,
        0.1372329443693161,
        -0.5636746287345886,
        0.5039541721343994,
        1.416604995727539,
        -0.35259130597114563,
        0.1148243397474289,
        -1.6050945520401,
        -0.1398622691631317,
        0.5800358057022095,
        0.02367580682039261,
        -0.7406759262084961,
        -0.03901795297861099,
        -0.06323029100894928,
        -0.3457180857658386,
        -0.06034649536013603,
        0.21033458411693573,
        -2.4243955612182617,
        -0.5092090368270874,
        -0.033722132444381714,
        0.4912590980529785,
        -0.10799664258956909,
        -0.25952669978141785,
        0.35188162326812744,
        -0.28592613339424133,
        0.6676823496818542,
        1.1733765602111816,
        -0.3182348906993866,
        -2.014699935913086,
        0.5711392164230347,
        -0.21502643823623657,
        -0.653954029083252,
        -1.6794384717941284,
        0.4035549461841583,
        1.0891189575195312,
        0.6543207764625549,
        -0.2174803465604782,
        -0.24030013382434845,
        -0.6101261973381042,
        -0.23845632374286652,
        0.44008854031562805,
        -0.1141791045665741,
        0.5151491761207581,
        0.033701587468385696,
        0.0517752431333065,
        -0.04935869947075844,
        -1.7196882963180542,
        0.018862616270780563,
        1.6526925563812256,
        0.14426733553409576,
        -0.12203742563724518,
        -0.42438769340515137,
        -0.25557994842529297,
        0.731130838394165,
        -0.02040237933397293,
        0.18056894838809967,
        -0.009888424538075924,
        0.8259418606758118,
        -0.6057983636856079,
        -0.44636380672454834,
        0.6901844143867493,
        0.06888280808925629,
        -1.1137832403182983,
        -0.020591052249073982,
        1.3712077140808105,
        -0.3193571865558624,
        0.22308756411075592,
        -0.03176719322800636,
        -0.31723082065582275,
        -0.2699032723903656,
        -1.5415689945220947,
        0.008404201827943325,
        0.3681584596633911,
        1.1527352333068848,
        0.4515222907066345,
        0.14492684602737427,
        0.06795681267976761,
        0.2959526479244232,
        -0.4757309854030609,
        -0.02948702499270439,
        0.3988156318664551,
        -0.0723271369934082,
        -0.31712663173675537,
        0.02703823521733284,
        0.04522046819329262,
        -1.1728962659835815,
        1.9563003778457642,
        0.21724951267242432,
        1.5290809869766235,
        -0.4409177899360657,
        -0.09909362345933914,
        -0.039544425904750824,
        -0.18920665979385376,
        -0.02916204370558262,
        -0.14761778712272644,
        -2.1495819091796875,
        0.6358491778373718,
        -1.0689448118209839,
        0.03705703467130661,
        -0.19504430890083313,
        0.7393998503684998,
        0.13101457059383392,
        0.42209392786026,
        -0.6928668022155762,
        0.554276704788208,
        1.915824294090271,
        0.9764677882194519,
        0.024480223655700684,
        -0.6898028254508972,
        -0.005911726970225573,
        -0.009698189795017242,
        -0.0015541546745225787,
        0.5648365616798401,
        3.7224700450897217,
        -0.5631310343742371,
        0.6156876087188721,
        0.022617466747760773,
        -0.24776135385036469,
        0.12680992484092712,
        0.24050477147102356,
        -0.4448869526386261,
        0.9935497045516968,
        0.17021653056144714,
        -0.5556532740592957,
        -1.5516122579574585,
        -0.21343261003494263,
        0.7446087002754211,
        -0.8195518851280212,
        -0.7456036806106567,
        -0.25201132893562317,
        0.06766321510076523,
        0.06850268691778183,
        -0.2833990454673767,
        -0.20351757109165192,
        -1.2133880853652954,
        0.2068043053150177,
        0.9366304874420166,
        0.611768901348114,
        -1.5901001691818237,
        0.21242490410804749,
        -0.364136278629303,
        0.3762943148612976,
        -0.035310570150613785,
        -1.0795546770095825,
        2.3051581382751465,
        -0.4888198673725128,
        0.25868186354637146,
        0.45004600286483765,
        -0.10624787956476212,
        0.23260198533535004,
        -0.9428271651268005,
        -0.11020015925168991,
        0.6463780999183655,
        -0.3978152573108673,
        -0.02751804329454899,
        0.032791074365377426,
        0.04445910453796387,
        0.11129661649465561,
        -0.08047125488519669,
        -2.353097915649414,
        -0.016071708872914314,
        -0.018579863011837006,
        0.9279456734657288,
        -1.1745675802230835,
        0.04515397176146507,
        1.189012050628662,
        -0.2959368824958801,
        0.026066111400723457,
        -1.01911199092865,
        -0.028356129303574562,
        1.1804523468017578,
        0.03765919432044029,
        -0.11558988690376282,
        0.08682283759117126,
        1.1743913888931274,
        -0.046036384999752045,
        -0.09655222296714783,
        -0.3981606662273407,
        0.754187822341919,
        -2.471949577331543,
        -0.7272429466247559,
        0.7533552050590515,
        0.22650927305221558,
        -0.5610225200653076,
        0.50566166639328,
        -0.040416594594717026,
        -0.04986857622861862,
        -0.9830605387687683,
        1.8869322538375854,
        -0.015265917405486107,
        -0.9496352076530457,
        -0.03784404695034027,
        0.06678561121225357,
        -0.5889889597892761,
        -0.6856948733329773,
        0.23570331931114197,
        0.1348637342453003,
        0.7588424682617188,
        -0.45964759588241577,
        0.6500731706619263,
        -0.833551824092865,
        -0.054214250296354294,
        1.234567642211914,
        -0.516169011592865,
        -0.09079618006944656,
        -0.06947501003742218,
        0.11371529847383499,
        -1.4365410804748535,
        1.2147036790847778,
        0.10272336006164551,
        0.9638509154319763,
        0.13325321674346924,
        -0.4403948187828064,
        1.2177612781524658,
        0.3314427137374878,
        0.014855550602078438,
        0.3454403281211853,
        -0.3045855164527893,
        0.06993536651134491,
        -0.04367722198367119,
        0.6829543709754944,
        -0.6071047186851501,
        1.483357548713684,
        -1.0452665090560913,
        0.3853224813938141,
        -0.5933771729469299,
        -0.6126195192337036,
        -0.29948168992996216,
        -0.09781696647405624,
        -0.6486881971359253,
        -0.7968552112579346,
        0.4199582636356354,
        -0.25434693694114685,
        0.12818484008312225,
        1.4186071157455444,
        -0.20942151546478271,
        1.9634217023849487,
        0.050396502017974854,
        -0.1255582869052887,
        1.1647981405258179,
        -0.5078753232955933,
        0.516302227973938,
        0.8489247560501099,
        0.21542181074619293,
        1.0155938863754272,
        0.0021164738573133945,
        -1.2260935306549072,
        0.5784379243850708,
        0.047633908689022064,
        0.48824211955070496,
        -0.18108691275119781,
        0.5893183946609497,
        -0.09878163039684296,
        -0.17904889583587646,
        1.2002100944519043,
        -1.0407894849777222,
        1.512861728668213,
        0.7028891444206238,
        -0.47962701320648193,
        -0.2217509001493454,
        -0.4208632707595825,
        -0.41850385069847107,
        -0.5491012930870056,
        -0.036561254411935806,
        -0.592381477355957,
        -2.1500813961029053,
        0.00520868506282568,
        -0.44854065775871277,
        -0.026933331042528152,
        0.5354944467544556,
        0.005783794913440943,
        0.15660960972309113,
        -0.3061813712120056,
        0.3594024181365967,
        0.021995315328240395,
        -0.3692547678947449,
        -1.0269651412963867,
        0.01073684822767973,
        -0.0580899678170681,
        -0.015396916307508945,
        0.028398513793945312,
        0.035740893334150314,
        0.8223362565040588,
        0.060658328235149384,
        -1.1925069093704224,
        -0.018757926300168037,
        0.9583920836448669,
        0.1765580028295517,
        0.14829488098621368,
        0.686780571937561,
        -0.9247474074363708,
        0.5402564406394958,
        0.2681178152561188,
        -1.2815535068511963,
        -0.9641487002372742,
        0.9574208855628967,
        0.03615585342049599,
        -0.4471399188041687,
        0.277340829372406,
        -0.2344161570072174,
        -0.8950684666633606,
        -0.16354916989803314,
        0.3644075095653534,
        -0.002373132389038801,
        0.03321845829486847,
        -1.1318305730819702,
        -1.7413886785507202,
        0.0799664556980133,
        -0.5140824317932129,
        -0.615688145160675,
        0.19682778418064117,
        1.3825750350952148,
        -0.054804522544145584,
        -1.032626748085022,
        0.29607993364334106,
        -0.8875762820243835,
        -1.1942102909088135,
        0.38798987865448,
        -0.21326151490211487,
        -1.5564258098602295,
        -0.49619799852371216,
        -0.3614235520362854,
        0.7776811718940735,
        0.20385175943374634,
        1.0082182884216309,
        -0.007962395437061787,
        -0.40427106618881226,
        -1.0367954969406128,
        1.445062518119812,
        -0.0015002303989604115,
        0.001700470456853509,
        -0.01852809637784958,
        0.014636656269431114,
        -0.030992811545729637,
        -0.001303400844335556,
        0.06570550799369812,
        0.014269008301198483,
        1.3637049198150635,
        -0.013273424468934536,
        -1.636601209640503,
        -0.012241564691066742,
        0.5703999996185303,
        -0.6262128949165344,
        -0.26824262738227844,
        -2.135226249694824,
        0.1733318269252777,
        -0.33024707436561584,
        0.03901851549744606,
        0.8434369564056396,
        0.3637467622756958,
        -1.3041088581085205,
        -0.2371603101491928,
        -1.346596360206604,
        0.5552623271942139,
        -0.025978069752454758,
        -0.7568650245666504,
        -0.3185123801231384,
        0.7898790836334229,
        0.13752076029777527,
        0.5182165503501892,
        -0.32025426626205444,
        2.2332568168640137,
        0.007972879335284233,
        0.04191615805029869,
        -0.010423514991998672,
        0.0512264184653759,
        -1.637237548828125,
        -0.021258242428302765,
        1.863122820854187,
        -0.015136786736547947,
        -0.08281472325325012,
        0.05589137226343155,
        0.13235630095005035,
        0.11341390758752823,
        0.6659278273582458,
        -0.8328580260276794,
        0.21937955915927887,
        0.5108227729797363,
        0.029661985114216805,
        1.0629185438156128,
        -0.044395171105861664,
        0.48138323426246643,
        0.34025248885154724,
        0.19138433039188385,
        0.026981372386217117,
        -0.057373613119125366,
        0.09878072887659073,
        -0.0420440249145031,
        -0.5234642624855042,
        0.03540697321295738,
        -1.5499898195266724,
        -0.022166291251778603,
        -0.35453373193740845,
        0.8331940174102783,
        -1.409683108329773,
        -0.42741525173187256,
        -0.29880020022392273,
        -0.16006456315517426,
        0.06960711628198624,
        -0.5168130993843079,
        -0.05779716745018959,
        0.5724167823791504,
        0.07076472789049149,
        -1.0521093606948853,
        1.7335212230682373,
        -1.2746926546096802,
        0.02561972849071026,
        -0.07556336373090744,
        -0.04634450748562813,
        0.21621844172477722,
        0.05069383606314659,
        -0.08869989961385727,
        2.7127256393432617,
        -0.006388729903846979,
        -0.5712659358978271,
        0.5125302672386169,
        0.06670775264501572,
        0.04843258112668991,
        -0.05183365195989609,
        0.08838509023189545,
        -0.08016043901443481,
        1.2838493585586548,
        0.03713611885905266,
        0.04201418533921242,
        -0.02130807377398014,
        -0.03921343758702278,
        -0.21051041781902313,
        -1.5990371704101562,
        0.3500642478466034,
        0.9996681809425354,
        -1.2915997505187988,
        -0.36558037996292114,
        0.23218075931072235,
        0.3425416052341461,
        1.232485294342041,
        0.15899111330509186,
        0.02594587579369545,
        0.859197199344635,
        0.2950192987918854,
        0.03486747667193413,
        -0.7984362244606018,
        1.2196452617645264,
        -0.4860992133617401,
        -1.2067432403564453,
        0.4482320547103882,
        1.1559786796569824,
        0.7822905778884888,
        0.2687593400478363,
        -0.028438109904527664,
        -0.984508216381073,
        0.3561484217643738,
        -0.47757530212402344,
        0.38672828674316406,
        0.2906956672668457,
        0.44971075654029846,
        -0.15646110475063324,
        -1.870335340499878,
        0.00969763845205307,
        -0.6923190951347351,
        0.882659375667572,
        -0.19831779599189758,
        -0.019772591069340706,
        -0.9367944002151489,
        -1.1075993776321411,
        0.04718463122844696,
        0.9868294596672058,
        -0.06979324668645859,
        0.8793718814849854,
        -0.054030053317546844,
        -0.043090417981147766,
        0.7630213499069214,
        -1.6350642442703247,
        0.07589411735534668,
        0.2892329692840576,
        -0.041436705738306046,
        -2.053980588912964,
        0.01092538796365261,
        0.7567422389984131,
        -0.09908037632703781,
        -0.01751639135181904,
        0.05463544279336929,
        0.19725801050662994,
        -0.867981493473053,
        -0.27895626425743103,
        -0.03536063805222511,
        -0.40753173828125,
        -0.09994424134492874,
        1.1989991664886475,
        0.19709745049476624,
        -1.5577176809310913,
        0.0029177640099078417,
        -1.0629774332046509,
        -0.06050822138786316,
        0.7471058964729309,
        2.634977102279663,
        0.30767127871513367,
        0.37746474146842957,
        0.18100613355636597,
        -0.7650582790374756,
        -0.13381989300251007,
        1.0788706541061401,
        -0.022458516061306,
        0.3966788351535797,
        -0.3102954030036926,
        0.1349169760942459,
        -0.010403386317193508,
        -0.08859584480524063,
        -0.4799349308013916,
        0.5577194690704346,
        -0.8411478400230408,
        -0.5612415671348572,
        0.7561960816383362,
        -1.343980312347412,
        0.8807835578918457,
        0.047337837517261505,
        -1.0678378343582153,
        -0.01608297973871231,
        -0.029989877715706825,
        0.01322076003998518,
        0.03228216618299484,
        -2.181781768798828,
        -0.023702742531895638,
        1.8220655918121338,
        0.0011232186807319522,
        -0.03425466641783714,
        0.17448395490646362,
        -0.10972484946250916
      ]
    },
    {
      "architecture": "normalization",
      "bias": [
        -0.25501635670661926,
        -0.25353431701660156,
        -0.321551650762558,
        -1.00150465965271,
        -0.42823266983032227,
        -0.28289249539375305,
        -0.7954451441764832,
        -0.44607603549957275,
        -0.38450464606285095,
        -0.23475834727287292,
        -0.06693011522293091,
        -1.570806622505188,
        0.19739341735839844,
        -0.5584064722061157,
        -1.5274486541748047,
        -0.24337300658226013,
        -0.13681256771087646,
        -0.1648288071155548,
        -0.38263779878616333,
        0.4724770784378052,
        -0.2733914256095886,
        0.11500820517539978,
        -0.86003577709198,
        -0.6389827728271484,
        -0.08871841430664062,
        -0.2913820743560791,
        -0.483572781085968,
        -0.2296387255191803,
        -0.3726789951324463,
        0.16830402612686157,
        -0.28958213329315186,
        -0.3180282711982727,
        -0.6564699411392212,
        -0.5386446118354797,
        -0.07084709405899048,
        -0.42791369557380676,
        -0.841362714767456,
        -0.035128794610500336,
        -0.4046351909637451,
        0.09275877475738525,
        -0.14992251992225647,
        -0.07499958574771881,
        -0.29600226879119873,
        0.03666107356548309,
        -0.10336923599243164,
        -1.0701576471328735,
        -0.507024884223938,
        -0.24955064058303833,
        -0.2376336306333542,
        -0.2577786147594452,
        -0.49116483330726624,
        -0.2281506508588791,
        -0.06962595134973526,
        -0.5998486876487732,
        -0.6246067881584167,
        -1.1330440044403076,
        0.10989835858345032,
        -0.028691530227661133,
        -1.1385074853897095,
        0.6930385231971741,
        -2.3707685470581055,
        -0.7804611921310425,
        -0.6727859973907471,
        -1.5425153970718384,
        -0.05793875455856323,
        -0.07064354419708252,
        -0.8420252203941345,
        -0.02960442379117012,
        0.44483694434165955,
        -0.036471426486968994,
        -0.7698702812194824,
        -0.02333521842956543,
        -0.6278093457221985,
        -1.0071206092834473,
        -0.1523807942867279,
        -1.6601924896240234,
        -0.21188370883464813,
        -0.09559481590986252,
        -0.7587494254112244,
        -0.45299550890922546,
        -1.0026510953903198,
        -1.0525507926940918,
        -0.1750560700893402,
        -0.6497225761413574,
        -1.7072683572769165,
        -0.2723413407802582,
        0.017727859318256378,
        -0.3229897916316986,
        -1.7578625679016113,
        -0.3083522915840149,
        -0.15666437149047852,
        -0.26465797424316406,
        -0.10041686147451401,
        -0.2215324193239212,
        -0.5627883076667786,
        -0.3918430507183075,
        -0.7592698335647583,
        -0.6705549955368042,
        -0.008740007877349854,
        -0.0950135886669159
      ],
      "weights": [
        2.4465417861938477,
        0.2948060929775238,
        1.6515439748764038,
        1.0580236911773682,
        -0.007211899384856224,
        2.14642071723938,
        0.413928747177124,
        0.37692686915397644,
        1.552139163017273,
        0.9109727740287781,
        0.2627663016319275,
        0.44388383626937866,
        0.23736020922660828,
        1.008172869682312,
        0.32479867339134216,
        3.274603843688965,
        0.37031617760658264,
        0.15834517776966095,
        0.1899903416633606,
        0.44142431020736694,
        0.6331806182861328,
        1.7657803297042847,
        0.473970890045166,
        0.37748369574546814,
        3.026667833328247,
        1.647908329963684,
        0.2379925549030304,
        0.44252389669418335,
        0.7498224377632141,
        0.5345660448074341,
        2.204958915710449,
        1.572757601737976,
        2.4970321655273438,
        0.24380287528038025,
        0.8079578280448914,
        1.461083173751831,
        0.6866089701652527,
        0.11968265473842621,
        0.21041834354400635,
        0.8181725740432739,
        5.966982841491699,
        4.460477828979492,
        0.9067900776863098,
        0.07905615121126175,
        0.11598744988441467,
        1.9898229837417603,
        0.15665557980537415,
        1.4197651147842407,
        1.1502734422683716,
        0.6072220206260681,
        1.0039212703704834,
        1.5890721082687378,
        3.054112672805786,
        1.3683750629425049,
        0.45050352811813354,
        0.11500220745801926,
        0.952535092830658,
        1.4520364999771118,
        0.02846314199268818,
        0.3557426333427429,
        0.5965051651000977,
        0.38365790247917175,
        1.51813805103302,
        0.2730233371257782,
        0.5851156115531921,
        0.6763266324996948,
        1.2766996622085571,
        2.617528200149536,
        0.8713411688804626,
        0.6778695583343506,
        0.39254575967788696,
        0.0727083683013916,
        0.5076993703842163,
        0.6920604705810547,
        0.8269835114479065,
        0.23515170812606812,
        1.6247811317443848,
        5.846968650817871,
        0.24216103553771973,
        1.7322577238082886,
        0.2933121919631958,
        0.24061189591884613,
        5.969829082489014,
        1.8234819173812866,
        0.2637123763561249,
        5.016515731811523,
        1.4743342399597168,
        2.858130931854248,
        0.9155964255332947,
        0.9545352458953857,
        6.0141282081604,
        0.425863116979599,
        1.8262869119644165,
        1.4145686626434326,
        1.2286430597305298,
        2.5874569416046143,
        1.0840752124786377,
        0.6597564220428467,
        0.9154521226882935,
        7.479179382324219
      ]
    },
    {
      "activation": "rectified",
      "architecture": "dense",
      "bias": [
        -1.360156774520874,
        -0.35280483961105347,
        -0.7955629229545593,
        0.229895681142807,
        -0.2731629014015198,
        -0.23067255318164825,
        -0.9269456267356873,
        -1.0463359355926514,
        -0.9772934913635254,
        -1.876800537109375,
        0.15653514862060547,
        0.7478541135787964,
        0.2766333818435669,
        -1.4390419721603394,
        -0.08892548084259033,
        -0.8203418850898743,
        -0.5279607176780701,
        -0.468120813369751,
        0.20801274478435516,
        -0.17558640241622925,
        0.831725001335144,
        -0.05565408617258072,
        -0.2171974778175354,
        0.5989770293235779,
        -0.4590470790863037,
        0.04158855974674225,
        -0.7223676443099976,
        -0.9665160179138184,
        0.5172178149223328,
        1.2915184497833252,
        0.1832047551870346,
        -1.2553890943527222,
        0.0461125373840332,
        -0.8166317343711853,
        0.5327257513999939,
        0.4811648726463318,
        -0.044707778841257095,
        0.20894120633602142,
        -0.3836415112018585,
        -0.01387183740735054,
        -0.316602498292923,
        -0.41821470856666565,
        -1.7227238416671753,
        0.13475365936756134,
        0.13875991106033325,
        -0.9291772842407227,
        -0.1098545491695404,
        0.2575795650482178,
        -0.03291567042469978,
        -0.5076860785484314,
        -0.7111558318138123,
        -0.26475971937179565,
        -1.0097284317016602,
        -0.43144339323043823,
        -0.7689002156257629,
        0.15051013231277466,
        -0.22569312155246735,
        -0.763256847858429,
        -0.3875304162502289,
        -0.49004819989204407,
        -0.381086528301239,
        -0.24707497656345367,
        0.12892912328243256,
        -0.840315580368042,
        -0.7471902966499329,
        -0.9643540382385254,
        -0.09144432842731476,
        0.2384970635175705,
        -0.15965993702411652,
        -1.2090940475463867,
        0.07722552120685577,
        -0.953660249710083,
        -0.24830874800682068,
        -0.5394163131713867,
        -0.8273358941078186,
        0.7650365233421326,
        -2.0766284465789795,
        -0.29543519020080566,
        -0.8928930163383484,
        -0.32202908396720886,
        0.32911479473114014,
        -0.6963151693344116,
        -0.6590078473091125,
        -1.4517008066177368,
        -1.1351263523101807,
        0.891011118888855,
        -1.3132686614990234,
        0.05334233120083809,
        0.018696490675210953,
        -0.2851213216781616,
        -1.6075561046600342,
        -0.7911508083343506,
        -0.3347959518432617,
        0.5270983576774597,
        0.8690466284751892,
        0.04002520442008972,
        -1.6133463382720947,
        -2.0373785495758057,
        -0.679294228553772,
        -0.06468101590871811
      ],
      "weights": [
        0.10216435045003891,
        0.34425878524780273,
        -0.5336862802505493,
        -0.558987021446228,
        0.21138958632946014,
        0.0352976955473423,
        0.38196367025375366,
        0.06089833751320839,
        0.6510646939277649,
        -0.39024436473846436,
        0.19952838122844696,
        -0.08781604468822479,
        0.9645463824272156,
        0.8081470131874084,
        0.3645118176937103,
        0.30237334966659546,
        0.05441948026418686,
        -0.24079935252666473,
        0.23480339348316193,
        -1.2508955001831055,
        1.2170146703720093,
        -0.31737270951271057,
        0.5491153001785278,
        -0.22788472473621368,
        -0.08030419051647186,
        0.6195423007011414,
        0.05764311924576759,
        0.4496181607246399,
        0.14300483465194702,
        -0.3825986683368683,
        -0.0035063105169683695,
        -1.2270820140838623,
        1.6217906475067139,
        0.24828673899173737,
        -0.36323294043540955,
        -0.021028395742177963,
        0.02638947404921055,
        0.14571188390254974,
        0.39692938327789307,
        -0.11193297803401947,
        -0.3469577133655548,
        -0.7125908732414246,
        -0.533839762210846,
        0.2026267796754837,
        0.923571765422821,
        0.13279268145561218,
        0.9620555639266968,
        -0.5821303725242615,
        0.20454815030097961,
        0.1800430566072464,
        0.5476154685020447,
        -0.35380634665489197,
        -0.4053427577018738,
        0.5208601951599121,
        0.2459467351436615,
        0.5882341861724854,
        -0.928500771522522,
        -1.3002058267593384,
        0.11644542217254639,
        -0.3117158114910126,
        0.3456973135471344,
        -0.3277256488800049,
        -3.6223628520965576,
        0.18812870979309082,
        -0.09518387168645859,
        0.13048014044761658,
        0.6875832080841064,
        -0.09949236363172531,
        -0.5910223722457886,
        0.4034680724143982,
        0.9692007899284363,
        -0.09791523963212967,
        0.8672357201576233,
        0.057545289397239685,
        0.6940160393714905,
        0.1304073929786682,
        0.2599901556968689,
        0.02294972725212574,
        -0.19612762331962585,
        1.4056553840637207,
        -0.02561073750257492,
        1.6327745914459229,
        0.044566571712493896,
        0.8179312348365784,
        0.4778410494327545,
        -0.2906266152858734,
        -0.027887264266610146,
        1.3607604503631592,
        0.6445112228393555,
        1.3089548349380493,
        0.9108185172080994,
        0.07581909745931625,
        0.23844943940639496,
        -0.1255893111228943,
        -0.3435119390487671,
        1.2006512880325317,
        -0.2955971956253052,
        0.21102061867713928,
        -0.23767991364002228,
        0.3070378005504608,
        0.28801172971725464,
        -0.6534029841423035,
        0.4874519407749176,
        0.385613352060318,
        0.14990714192390442,
        -1.0547181367874146,
        0.0026266095228493214,
        0.6792480945587158,
        -0.36460039019584656,
        -1.930782675743103,
        0.09676181524991989,
        -0.290951132774353,
        0.6456635594367981,
        0.21453893184661865,
        0.28001493215560913,
        -0.13672956824302673,
        0.445328950881958,
        0.003950053360313177,
        0.4991998076438904,
        0.009927683509886265,
        0.5005469918251038,
        -2.4572641849517822,
        -0.1874220073223114,
        -0.11992176622152328,
        -0.31333115696907043,
        -0.3200004994869232,
        0.37011218070983887,
        0.018823891878128052,
        0.13214507699012756,
        0.0016452358104288578,
        -0.11016186326742172,
        -0.7185405492782593,
        -0.42083239555358887,
        0.07754578441381454,
        0.007686174008995295,
        0.030765332281589508,
        0.18590176105499268,
        -0.06492450833320618,
        0.02190226875245571,
        -0.08235716074705124,
        0.07290567457675934,
        0.24941349029541016,
        -0.28594672679901123,
        -0.3653821647167206,
        0.27390027046203613,
        0.18406474590301514,
        -0.19133885204792023,
        0.330181747674942,
        0.43586644530296326,
        -0.0919579342007637,
        -0.03825950250029564,
        0.0006422130391001701,
        -0.1427372395992279,
        -0.08880230784416199,
        -0.017745468765497208,
        0.08461914211511612,
        -0.7345959544181824,
        -1.6931742429733276,
        -0.11416985839605331,
        0.3927214741706848,
        0.3218972086906433,
        -0.13864010572433472,
        -0.783939778804779,
        0.28976988792419434,
        -0.6206105351448059,
        -2.410997152328491,
        -0.12930923700332642,
        -0.9252399802207947,
        -0.1511133760213852,
        -3.5689902305603027,
        -0.18581965565681458,
        0.41306981444358826,
        -0.5275603532791138,
        -0.0389016792178154,
        0.15572769939899445,
        0.39427927136421204,
        -1.0575453042984009,
        -2.9828546047210693,
        0.5458016991615295,
        -0.09432613849639893,
        -0.0850023478269577,
        0.6989027857780457,
        0.574367344379425,
        -0.8311611413955688,
        0.25306639075279236,
        -0.13460001349449158,
        0.25057676434516907,
        0.226570725440979,
        0.26673951745033264,
        -0.2876805365085602,
        0.19289059937000275,
        -0.47193166613578796,
        -0.43190670013427734,
        -0.14229214191436768,
        0.5566466450691223,
        -0.29769447445869446,
        0.18669694662094116,
        0.00709551153704524,
        -1.331282138824463,
        -0.05394293740391731,
        0.18356597423553467,
        0.4941360652446747,
        0.2521713376045227,
        0.2508402466773987,
        -0.3837940990924835,
        -0.9093700647354126,
        0.07913132011890411,
        0.8743392825126648,
        -0.21401116251945496,
        -0.8748235702514648,
        -0.3311634957790375,
        0.10039360821247101,
        2.5091824531555176,
        -0.8119950294494629,
        -0.2613601088523865,
        0.4631352424621582,
        -0.2321493923664093,
        -0.3533766567707062,
        0.27086687088012695,
        -0.0942634716629982,
        0.13034756481647491,
        -2.343604803085327,
        0.45326921343803406,
        0.5620982050895691,
        -0.12196864932775497,
        0.1306559145450592,
        -0.2578330636024475,
        0.035194918513298035,
        0.055622395128011703,
        -0.4064099192619324,
        0.19590696692466736,
        -0.4858861267566681,
        -0.08505234122276306,
        -0.1065608561038971,
        -0.5034487247467041,
        -0.09177105873823166,
        0.08678671717643738,
        0.1905519664287567,
        0.29163122177124023,
        0.12495661526918411,
        -0.3472270369529724,
        0.006484710145741701,
        -0.002090758178383112,
        -0.18944253027439117,
        -0.24039945006370544,
        -0.5500390529632568,
        -0.2353452891111374,
        -0.10219251364469528,
        -0.38161322474479675,
        -0.0968470498919487,
        0.2643425166606903,
        -1.1669998168945312,
        0.007885348051786423,
        -0.5295137763023376,
        0.23872794210910797,
        -0.2688828110694885,
        -0.13774386048316956,
        -0.917660653591156,
        -0.13336078822612762,
        0.05935262516140938,
        0.08002350479364395,
        -0.6238268613815308,
        -4.25993537902832,
        0.4301773011684418,
        -3.4953951835632324,
        -0.7574248313903809,
        -0.48756200075149536,
        -0.8180383443832397,
        -0.017629915848374367,
        0.09878851473331451,
        -0.23847375810146332,
        0.05186867713928223,
        0.19050952792167664,
        -0.42596301436424255,
        0.002761705545708537,
        0.4493531584739685,
        0.010551057755947113,
        -0.8138283491134644,
        -0.27789151668548584,
        0.16208794713020325,
        0.2398063689470291,
        -0.04801560565829277,
        0.4307243227958679,
        -0.7551788687705994,
        0.08820563554763794,
        -0.11673372238874435,
        0.8269859552383423,
        -0.5793356895446777,
        0.1870056688785553,
        1.5779393911361694,
        0.503607988357544,
        -0.7082594037055969,
        -0.8727455735206604,
        -0.03849063068628311,
        0.05492901802062988,
        -0.18297892808914185,
        0.22319358587265015,
        0.09148845821619034,
        -1.5077853202819824,
        -0.014779471792280674,
        0.10197155177593231,
        1.1948163509368896,
        0.706541121006012,
        0.13079699873924255,
        0.4818398952484131,
        1.5132536888122559,
        -0.7227891087532043,
        -1.62751042842865,
        0.24380213022232056,
        0.25086528062820435,
        -0.1750016063451767,
        0.7970501780509949,
        0.1747787594795227,
        -1.7744747400283813,
        -1.1185672283172607,
        -0.8069038391113281,
        -0.19875286519527435,
        0.44652777910232544,
        -0.14384758472442627,
        -0.4427151679992676,
        0.4761717915534973,
        -0.3627997040748596,
        -0.8954208493232727,
        0.9036206603050232,
        0.1255728304386139,
        -0.8017265796661377,
        0.36985230445861816,
        -0.05286648869514465,
        0.2756023406982422,
        -1.4124598503112793,
        -0.6683739423751831,
        -0.7992709279060364,
        0.27360305190086365,
        0.0973888412117958,
        0.07655211538076401,
        -0.7056170701980591,
        -0.3534374535083771,
        -0.1959368884563446,
        1.0359002351760864,
        -0.8035048246383667,
        -0.05902014300227165,
        0.6066591739654541,
        -1.1048333644866943,
        0.32846739888191223,
        -0.7014866471290588,
        -0.23489274084568024,
        -0.36721137166023254,
        -0.40403327345848083,
        0.4226975440979004,
        -1.0751100778579712,
        0.4600802958011627,
        -0.641679584980011,
        -0.8269575238227844,
        0.6503714323043823,
        -0.8613621592521667,
        1.0048834085464478,
        -0.6130855083465576,
        -0.0669388473033905,
        -0.24270012974739075,
        -0.2694994807243347,
        1.0562304258346558,
        -0.2713838815689087,
        0.4651728570461273,
        0.28013572096824646,
        -0.04514029249548912,
        1.1221861839294434,
        -0.29413899779319763,
        -0.06062191724777222,
        0.36290478706359863,
        0.1569962501525879,
        0.1630382239818573,
        0.3283427953720093,
        -0.08954209089279175,
        0.25774431228637695,
        -0.963736355304718,
        -0.023455973714590073,
        -0.29234474897384644,
        -0.1769435703754425,
        0.0923590436577797,
        -0.3650987446308136,
        -1.3451852798461914,
        -0.1694440096616745,
        -0.0838732048869133,
        -0.8335601687431335,
        -0.7638804316520691,
        -0.9591192007064819,
        -0.14998458325862885,
        -0.7036687731742859,
        1.0359363555908203,
        -0.3173159062862396,
        -0.7943953275680542,
        -0.03513353317975998,
        -0.5261442065238953,
        -0.6496719717979431,
        0.14991028606891632,
        0.00385673507116735,
        0.127663254737854,
        -0.1377415657043457,
        0.9653395414352417,
        0.5960537791252136,
        -0.19200493395328522,
        -0.08738311380147934,
        0.3443644642829895,
        -0.13461339473724365,
        -0.16272516548633575,
        -0.5064875483512878,
        0.13585616648197174,
        0.4194561541080475,
        0.20708045363426208,
        -0.10420132428407669,
        -0.2549745738506317,
        -0.5147703886032104,
        0.011886821128427982,
        0.6652699112892151,
        0.7254340052604675,
        0.04278557375073433,
        -0.497114360332489,
        0.18395063281059265,
        0.1796538382768631,
        -0.11693912744522095,
        -0.016002777963876724,
        -0.687073290348053,
        0.2539987564086914,
        -0.677851676940918,
        -0.5305183529853821,
        0.09070152789354324,
        0.6959609985351562,
        0.05981864407658577,
        -0.5742311477661133,
        -0.14736244082450867,
        0.29117798805236816,
        0.025243837386369705,
        0.21249309182167053,
        -0.010895500890910625,
        -0.31962355971336365,
        0.13554397225379944,
        -0.23092640936374664,
        0.05213494598865509,
        0.6386954188346863,
        0.11139898002147675,
        -0.058905087411403656,
        0.07241440564393997,
        -0.4554186761379242,
        -0.3307962119579315,
        0.4448760449886322,
        -0.32314133644104004,
        0.58761066198349,
        0.2473812997341156,
        0.2777070701122284,
        -0.2711673974990845,
        0.6924393773078918,
        0.2805388867855072,
        -0.24388334155082703,
        -0.4077114760875702,
        0.4205198884010315,
        0.4369877278804779,
        0.22876380383968353,
        0.035809438675642014,
        -0.3021799623966217,
        0.529991090297699,
        -0.3624768853187561,
        0.2479381561279297,
        -0.3144170641899109,
        0.26238733530044556,
        -0.13187088072299957,
        0.20099353790283203,
        -0.08667904883623123,
        -0.08739003539085388,
        0.20013105869293213,
        -0.19818854331970215,
        0.32403481006622314,
        -0.032436247915029526,
        0.3926723897457123,
        -0.36036691069602966,
        -0.4514008164405823,
        0.13316811621189117,
        -0.03188380226492882,
        -8.546564102172852,
        -0.2859634459018707,
        0.06756525486707687,
        -0.14543411135673523,
        0.024991242215037346,
        0.5220985412597656,
        -0.4690511226654053,
        0.17830783128738403,
        -0.17317639291286469,
        0.12326016277074814,
        -0.19123710691928864,
        -0.07992890477180481,
        0.7555316090583801,
        0.4320944547653198,
        -0.7502410411834717,
        -0.09564311802387238,
        0.11775852739810944,
        0.25660333037376404,
        0.20455777645111084,
        0.2652395963668823,
        0.23667125403881073,
        -0.22806301712989807,
        0.014521913602948189,
        -0.10683075338602066,
        -0.5657541155815125,
        -1.1727149486541748,
        0.23859688639640808,
        -0.1349545121192932,
        0.3341567814350128,
        -0.1750267744064331,
        -0.026872295886278152,
        -4.689924240112305,
        -0.09813632071018219,
        0.07033536583185196,
        0.012579456903040409,
        -0.061211198568344116,
        0.5946435928344727,
        0.4613565504550934,
        0.6647073030471802,
        0.3850949704647064,
        0.7581030130386353,
        0.6441565155982971,
        -0.5922189950942993,
        0.8436028957366943,
        0.20854447782039642,
        -0.05052460730075836,
        0.10354680567979813,
        0.23372121155261993,
        0.4142989218235016,
        -0.2682143449783325,
        -0.548366904258728,
        0.10753440856933594,
        -0.5790308713912964,
        -0.14431948959827423,
        -0.5593190789222717,
        -1.3167457580566406,
        0.7311604619026184,
        -0.6468851566314697,
        -0.5699717402458191,
        0.5729459524154663,
        -0.11824861168861389,
        -0.46204033493995667,
        0.39234691858291626,
        -1.2750197649002075,
        -0.36487850546836853,
        -0.037137746810913086,
        0.011710865423083305,
        -0.709338366985321,
        -0.5053825378417969,
        -0.2889690101146698,
        -0.5256253480911255,
        -0.6652126908302307,
        -1.2085235118865967,
        -0.11481426656246185,
        -0.07101177424192429,
        0.4813123941421509,
        0.07034057378768921,
        -0.13223148882389069,
        0.48321980237960815,
        -0.17248795926570892,
        -0.5773754715919495,
        -0.6096431016921997,
        -0.3431968092918396,
        -0.35261374711990356,
        0.162679523229599,
        0.5699642896652222,
        -0.2799047529697418,
        0.5024630427360535,
        -0.048148054629564285,
        -0.3244970440864563,
        -0.08353278040885925,
        0.46937426924705505,
        0.08795860409736633,
        0.013286762870848179,
        0.6186838746070862,
        -0.00505079748108983,
        -0.154036745429039,
        -0.41613584756851196,
        -1.0002875328063965,
        -0.16004368662834167,
        0.5249114036560059,
        -0.15827086567878723,
        0.18289172649383545,
        0.4664691388607025,
        0.12406785786151886,
        0.1862974315881729,
        0.0836370512843132,
        0.001485452987253666,
        -1.1121580600738525,
        -0.3970033824443817,
        0.27049732208251953,
        0.016113707795739174,
        0.06541465222835541,
        -0.4362339377403259,
        0.22105219960212708,
        0.9109119176864624,
        -0.6024953722953796,
        0.9357978701591492,
        0.05427355691790581,
        0.47457200288772583,
        -0.3679949939250946,
        -0.3271583616733551,
        -0.20791533589363098,
        -7.620321273803711,
        0.024333404377102852,
        -0.24737277626991272,
        -1.7748349905014038,
        -0.07461743801832199,
        -0.04842274263501167,
        -0.08478693664073944,
        -0.49759402871131897,
        0.14414028823375702,
        -0.27511194348335266,
        -0.38450637459754944,
        -0.7126314640045166,
        -0.2914367914199829,
        0.34436020255088806,
        -0.30051466822624207,
        -0.06613800674676895,
        0.44622594118118286,
        -0.39970263838768005,
        -0.7576773762702942,
        0.465842068195343,
        0.2819195091724396,
        -0.052364956587553024,
        -0.25873661041259766,
        -0.4725509583950043,
        0.03997456282377243,
        0.3078634440898895,
        -0.07474087178707123,
        -0.24298836290836334,
        -0.07000820338726044,
        0.09054218232631683,
        -0.029086852446198463,
        0.09487149864435196,
        0.13495983183383942,
        -0.19555319845676422,
        -0.9146904945373535,
        -0.3332606256008148,
        -2.2287323474884033,
        -0.08991191536188126,
        -0.14455783367156982,
        0.02271697111427784,
        -0.08400703221559525,
        -1.364162564277649,
        0.19297857582569122,
        -0.057677920907735825,
        0.39535820484161377,
        0.44714513421058655,
        0.973844587802887,
        -0.4990994930267334,
        -0.15724685788154602,
        -0.23420506715774536,
        0.18540215492248535,
        -0.14787603914737701,
        -0.7605036497116089,
        -0.13253144919872284,
        0.12771549820899963,
        0.3711949586868286,
        0.0256603192538023,
        -0.25889402627944946,
        -0.047163840383291245,
        1.0405030250549316,
        -0.1153879165649414,
        0.08143425732851028,
        0.24523715674877167,
        -0.18946002423763275,
        -0.45184680819511414,
        0.40242376923561096,
        0.1829068958759308,
        -1.1345783472061157,
        -0.03759495168924332,
        -0.09353404492139816,
        0.3619523346424103,
        0.18763791024684906,
        -0.36079174280166626,
        -0.07964204996824265,
        -0.3429914116859436,
        0.6185813546180725,
        -1.7503364086151123,
        0.24164344370365143,
        -0.8955341577529907,
        0.35168150067329407,
        -0.4547351598739624,
        -0.216109037399292,
        0.04929002374410629,
        -0.08654313534498215,
        0.9980477094650269,
        -0.39516162872314453,
        -0.2890249192714691,
        0.17214719951152802,
        -0.030571747571229935,
        -0.4343024790287018,
        0.1789301633834839,
        -1.1305193901062012,
        0.024918822571635246,
        -0.3649400770664215,
        -0.2795255482196808,
        -0.515764594078064,
        -0.7117735147476196,
        -0.0702442154288292,
        -0.31031984090805054,
        0.018563462421298027,
        -0.4613936245441437,
        0.21553675830364227,
        -4.229918956756592,
        0.009380758740007877,
        -0.009080604650080204,
        0.01893910951912403,
        0.33525869250297546,
        0.2546795904636383,
        0.3187061548233032,
        -0.04042816907167435,
        -0.17036545276641846,
        -0.8328767418861389,
        0.09098536521196365,
        -0.021323876455426216,
        1.1235767602920532,
        -0.3485991656780243,
        -0.2689991891384125,
        -0.1515277624130249,
        -0.6052474975585938,
        0.11313644796609879,
        0.09634581953287125,
        0.197496697306633,
        0.3032172620296478,
        -0.2100556641817093,
        -0.22945952415466309,
        -1.1223301887512207,
        -0.34633660316467285,
        -1.1766873598098755,
        -2.0347042083740234,
        -0.07501500099897385,
        0.6231852769851685,
        -0.7056049704551697,
        0.5956317186355591,
        -0.03809097781777382,
        -0.17844785749912262,
        -0.5166960954666138,
        0.8054616451263428,
        0.20751596987247467,
        0.558803141117096,
        0.6121470332145691,
        0.1409759223461151,
        -2.057739019393921,
        -0.1631319671869278,
        0.17099004983901978,
        0.09819009900093079,
        0.08237126469612122,
        0.0923205018043518,
        -0.774387538433075,
        0.02047353982925415,
        0.08703212440013885,
        -2.004232883453369,
        -0.31766024231910706,
        -1.518633484840393,
        -0.025608127936720848,
        -0.5697556138038635,
        -0.5704416036605835,
        0.4308522939682007,
        0.1614050269126892,
        0.13285477459430695,
        0.18308314681053162,
        -1.2553788423538208,
        0.04471844434738159,
        0.05607094615697861,
        -0.6749776601791382,
        -0.08720821142196655,
        1.0092651844024658,
        -0.7720712423324585,
        0.4581376910209656,
        0.1959027200937271,
        0.0026415158063173294,
        -0.1101747453212738,
        0.0966072678565979,
        -0.06976950913667679,
        -0.27745485305786133,
        0.26930609345436096,
        -0.0003710185410454869,
        -2.3840160369873047,
        0.5589451193809509,
        -0.24381858110427856,
        -0.18679943680763245,
        0.6462317109107971,
        -0.008025343529880047,
        -1.3326414823532104,
        0.7896748781204224,
        0.00316931726410985,
        -0.3141742944717407,
        -0.21089386940002441,
        0.4331369400024414,
        -0.5744852423667908,
        -0.09276236593723297,
        0.15159837901592255,
        0.2559886574745178,
        -0.3761392831802368,
        0.3153094947338104,
        -0.8480110764503479,
        0.33412957191467285,
        -0.5901291966438293,
        0.4550032317638397,
        -1.5658894777297974,
        -0.35768193006515503,
        0.06444277614355087,
        0.7330974340438843,
        -0.18661320209503174,
        -0.12201274186372757,
        -0.765906572341919,
        -0.5312042236328125,
        0.5125860571861267,
        -0.019004935398697853,
        -0.6163618564605713,
        -0.6811786890029907,
        0.141977921128273,
        0.007935767062008381,
        0.6333552002906799,
        -1.0301179885864258,
        0.24642644822597504,
        0.37292447686195374,
        -0.5862674713134766,
        -0.3350560665130615,
        -0.3680373728275299,
        -0.22587250173091888,
        -0.4149680733680725,
        -2.3104283809661865,
        0.7972964644432068,
        0.12996749579906464,
        -0.20414818823337555,
        -1.5460723638534546,
        -0.18066507577896118,
        0.053874362260103226,
        1.3015159368515015,
        -0.1299632042646408,
        0.3988001048564911,
        -0.5841599702835083,
        -0.3751102089881897,
        -0.3165925145149231,
        0.14923888444900513,
        0.30544865131378174,
        0.13793909549713135,
        0.3219839334487915,
        1.0845340490341187,
        -0.5669885873794556,
        -0.43820831179618835,
        0.1418209969997406,
        0.7970177531242371,
        -0.3956087827682495,
        0.7840906977653503,
        0.1584303379058838,
        0.1804308444261551,
        0.6503486633300781,
        -1.7917650938034058,
        0.6195379495620728,
        -0.32050198316574097,
        -0.17417661845684052,
        -1.1422151327133179,
        -0.13787342607975006,
        0.6270782947540283,
        -0.5778701901435852,
        -0.6569566130638123,
        0.042738448828458786,
        0.573930561542511,
        0.17166467010974884,
        0.050857063382864,
        0.13307692110538483,
        -2.4209017753601074,
        -0.7544021010398865,
        -0.6164041757583618,
        -0.7538003921508789,
        0.09319175779819489,
        -0.15300756692886353,
        0.2259519249200821,
        -0.5257088541984558,
        0.11155600100755692,
        0.9525998830795288,
        0.41537925601005554,
        -1.7947477102279663,
        -0.038655996322631836,
        -0.19709528982639313,
        -0.07654425501823425,
        -0.2841966152191162,
        -1.0822542905807495,
        0.23460820317268372,
        -0.6828949451446533,
        0.7355942726135254,
        -0.05231703817844391,
        0.2194305807352066,
        0.3483019769191742,
        0.8996888995170593,
        -0.3272254765033722,
        0.14770762622356415,
        0.3007577955722809,
        1.6551493406295776,
        -1.8907727003097534,
        0.162500262260437,
        -0.025392482057213783,
        0.05524151772260666,
        0.39067530632019043,
        -0.672508180141449,
        -0.6895350813865662,
        0.9957547783851624,
        0.44614893198013306,
        -0.008102641440927982,
        0.55038982629776,
        0.09539901465177536,
        -0.28040751814842224,
        -0.13291697204113007,
        -0.22386379539966583,
        0.05899753421545029,
        0.01992030441761017,
        -0.6198951005935669,
        0.16641001403331757,
        0.4915260970592499,
        -0.5446929931640625,
        1.05803382396698,
        0.1554020196199417,
        -0.24939604103565216,
        0.3978034555912018,
        -0.9079399108886719,
        -0.3494042158126831,
        -0.46865931153297424,
        -0.10611168295145035,
        -0.08754017949104309,
        0.031612470746040344,
        -0.3991720378398895,
        -0.9771082401275635,
        -0.8328478932380676,
        0.20647485554218292,
        0.20333421230316162,
        0.47685787081718445,
        0.20079246163368225,
        -0.9471046924591064,
        -0.019945163279771805,
        -0.35654810070991516,
        -0.6174976825714111,
        -0.18227016925811768,
        0.4017918109893799,
        0.11333711445331573,
        -0.5212682485580444,
        -0.7766792178153992,
        0.09055130928754807,
        0.2974725365638733,
        -0.43643277883529663,
        -0.16099978983402252,
        0.02504127472639084,
        0.7260313034057617,
        0.09880369901657104,
        -0.04050407558679581,
        2.0085361003875732,
        0.4057300090789795,
        0.2919696569442749,
        -0.5969104766845703,
        0.4355621635913849,
        -0.32945412397384644,
        1.0030266046524048,
        -0.0833362266421318,
        0.16223502159118652,
        0.33783337473869324,
        -0.9216195940971375,
        -0.3675210177898407,
        -0.46062883734703064,
        0.09299173206090927,
        -0.11485999822616577,
        0.8099396228790283,
        0.30880048871040344,
        0.35765984654426575,
        0.33592209219932556,
        -0.17048712074756622,
        -0.9303235411643982,
        -0.29830142855644226,
        0.09205597639083862,
        -0.39045169949531555,
        -0.3206614851951599,
        -0.05679548159241676,
        -0.13644321262836456,
        -0.08589469641447067,
        0.47381046414375305,
        -0.37822359800338745,
        0.0023245839402079582,
        -0.010778679512441158,
        -0.05378992483019829,
        -0.05808147042989731,
        -0.03106803074479103,
        -0.42639267444610596,
        -0.24686656892299652,
        0.23189041018486023,
        -0.9403432011604309,
        0.4726423919200897,
        -0.44880324602127075,
        0.05444962531328201,
        -2.800584316253662,
        0.7375533580780029,
        -0.024828840047121048,
        0.4976838529109955,
        -0.2251955270767212,
        -0.37876662611961365,
        0.12018460035324097,
        0.5659016370773315,
        -0.06850199401378632,
        -0.9641252756118774,
        -0.5648908615112305,
        -0.5458270311355591,
        -3.1508049964904785,
        1.2186046838760376,
        0.4968070983886719,
        -0.08445674926042557,
        -1.1367642879486084,
        0.11756822466850281,
        0.09594088792800903,
        0.6110259294509888,
        -0.5297226309776306,
        0.3500269055366516,
        -0.040045030415058136,
        -0.05696675553917885,
        1.9758522510528564,
        -0.4041803181171417,
        -0.06580574810504913,
        -0.28115347027778625,
        0.09370248764753342,
        -0.30563652515411377,
        0.01448744349181652,
        -0.12966397404670715,
        0.014538153074681759,
        0.13401146233081818,
        0.3030323386192322,
        -0.020858535543084145,
        0.5203328728675842,
        0.2049657702445984,
        -0.6635687351226807,
        -0.46279510855674744,
        -0.032655201852321625,
        0.36729905009269714,
        -0.5379387736320496,
        0.0015619854675605893,
        -0.48281821608543396,
        -0.8162318468093872,
        0.41106846928596497,
        0.5569998621940613,
        -0.20162175595760345,
        0.5801430344581604,
        -0.7428348064422607,
        1.3013811111450195,
        -0.19525578618049622,
        -0.16891580820083618,
        -0.8283971548080444,
        0.10116282850503922,
        0.5105238556861877,
        0.47763073444366455,
        -0.23719248175621033,
        0.03480147570371628,
        -0.2674809992313385,
        -1.3715001344680786,
        -0.47191327810287476,
        -0.11216902732849121,
        -0.3338339626789093,
        -3.116485118865967,
        -0.25602808594703674,
        -0.2614455819129944,
        -0.3184914290904999,
        -3.368433952331543,
        -1.9940754175186157,
        -0.17689356207847595,
        -1.1934560537338257,
        -0.9140473008155823,
        -0.3673337697982788,
        0.22233964502811432,
        -0.40440642833709717,
        0.27414587140083313,
        -0.8302972912788391,
        -1.2856786251068115,
        -0.6922571063041687,
        -0.13375405967235565,
        -1.36992609500885,
        -0.37792399525642395,
        0.2367066890001297,
        0.05743119493126869,
        -0.5097034573554993,
        -0.4782589077949524,
        -0.5144739151000977,
        -0.3758426606655121,
        -0.01599283330142498,
        -2.415421724319458,
        0.8510125875473022,
        -0.5567625761032104,
        0.7869522571563721,
        0.013280397281050682,
        0.22752505540847778,
        0.06210877746343613,
        -0.06439480185508728,
        -0.8582914471626282,
        -0.2199818640947342,
        0.13428403437137604,
        -0.36890709400177,
        0.24950146675109863,
        -0.5238087177276611,
        -1.1076990365982056,
        -0.5361554026603699,
        0.8374364376068115,
        -0.546506404876709,
        -0.3466637432575226,
        0.5396126508712769,
        -0.1803324669599533,
        -0.3467174470424652,
        0.372907817363739,
        0.36134591698646545,
        -0.37494713068008423,
        -0.6085336804389954,
        -0.17295284569263458,
        -0.3695806860923767,
        -0.4632038176059723,
        -2.5327634811401367,
        -0.25929176807403564,
        -0.5338761806488037,
        0.8609484434127808,
        0.04058844968676567,
        -1.3046382665634155,
        -0.6969622373580933,
        -0.7198527455329895,
        -0.49510660767555237,
        -2.0950615406036377,
        0.7456762194633484,
        0.5283409357070923,
        0.3237157464027405,
        -0.8233123421669006,
        -0.49762070178985596,
        -0.8136935234069824,
        -0.8400769233703613,
        -0.35573938488960266,
        -0.921241044998169,
        0.13139593601226807,
        0.1652701497077942,
        -0.2878910303115845,
        -0.21532633900642395,
        -0.4683316648006439,
        -0.20177006721496582,
        0.25921669602394104,
        -0.7215192914009094,
        -0.647190511226654,
        -1.363635778427124,
        0.1456209272146225,
        -0.5116751790046692,
        0.4516052305698395,
        -0.014791923575103283,
        0.8698855042457581,
        -0.4611397385597229,
        0.12400983273983002,
        -0.8329414129257202,
        1.1381772756576538,
        -0.6829922199249268,
        -0.11636736243963242,
        0.3845992684364319,
        0.041324272751808167,
        0.3471015691757202,
        -0.5299954414367676,
        -0.5469807386398315,
        0.05180856212973595,
        -0.5823166370391846,
        0.48309844732284546,
        0.13804218173027039,
        -1.424867868423462,
        -0.5597597360610962,
        0.4796674847602844,
        -1.0937138795852661,
        0.8621270656585693,
        -0.0715833529829979,
        -0.8170945048332214,
        0.12393252551555634,
        0.026420392096042633,
        0.12288384139537811,
        -1.2360080480575562,
        -0.5016952753067017,
        0.04354260489344597,
        -0.3113280236721039,
        0.24767160415649414,
        -0.2379014790058136,
        -0.563051700592041,
        -2.5229952335357666,
        -1.221980094909668,
        0.4781978130340576,
        -0.5605610609054565,
        -0.5708972811698914,
        0.700122594833374,
        0.7698014974594116,
        -0.5561526417732239,
        -0.9736210703849792,
        -0.10308120399713516,
        -0.7921210527420044,
        -0.1850862205028534,
        0.09669426828622818,
        -0.26035553216934204,
        -0.41164371371269226,
        0.27581560611724854,
        -1.4257071018218994,
        0.01833759993314743,
        0.18798398971557617,
        0.11169145256280899,
        -0.861788809299469,
        -0.2828468680381775,
        0.28572025895118713,
        -0.7851850986480713,
        0.5356209874153137,
        0.5058788061141968,
        0.27388298511505127,
        0.44525039196014404,
        0.020506447181105614,
        -0.3425571024417877,
        -0.8194887638092041,
        0.0863305926322937,
        0.6522865295410156,
        0.05829145759344101,
        -0.04954859986901283,
        -0.47552722692489624,
        -0.00600573280826211,
        0.06668173521757126,
        1.7305140495300293,
        -0.1685342788696289,
        -0.6984882950782776,
        0.15940095484256744,
        0.11747584491968155,
        -0.6303420066833496,
        1.160962700843811,
        -0.7921607494354248,
        0.08913645148277283,
        0.3740098476409912,
        0.3864307403564453,
        -1.031834602355957,
        -0.15304474532604218,
        0.3502998352050781,
        -0.945787250995636,
        0.30644112825393677,
        0.948947012424469,
        0.2736499011516571,
        -0.35972729325294495,
        -0.09421470016241074,
        0.7265104055404663,
        -0.46323245763778687,
        0.2766740024089813,
        -0.9312479496002197,
        -0.045825615525245667,
        0.6845824122428894,
        -0.32736673951148987,
        2.1887989044189453,
        -0.15504050254821777,
        -0.8326935768127441,
        -0.02654416859149933,
        0.29105085134506226,
        -0.3853118419647217,
        0.7754124402999878,
        -1.7454147338867188,
        0.1533900499343872,
        1.1462057828903198,
        -0.05387566611170769,
        -0.499854177236557,
        0.5898472666740417,
        0.09493865817785263,
        -0.3119233250617981,
        0.1459590047597885,
        0.6364349126815796,
        -0.7585012316703796,
        -0.3135290741920471,
        -0.20146822929382324,
        0.36237049102783203,
        0.34432366490364075,
        -1.3800108432769775,
        0.24808764457702637,
        0.6499747633934021,
        -1.6855818033218384,
        0.12660956382751465,
        -0.9908300638198853,
        -0.49613091349601746,
        -0.5523799657821655,
        0.5340316295623779,
        -0.9518727660179138,
        0.3262990713119507,
        -0.12568843364715576,
        -0.7876750826835632,
        -1.2602618932724,
        -0.1084587424993515,
        0.3160528242588043,
        0.08836402744054794,
        -0.32132816314697266,
        -0.38988247513771057,
        -0.6861997246742249,
        -0.057471416890621185,
        0.07563953101634979,
        0.006479996256530285,
        0.005807987879961729,
        -0.3646796643733978,
        -1.3261491060256958,
        0.07475830614566803,
        -1.1076196432113647,
        -0.20223547518253326,
        -0.04243979603052139,
        0.03212159499526024,
        -0.12332975119352341,
        0.2207602858543396,
        0.13609589636325836,
        -0.14777329564094543,
        -0.05423995107412338,
        -0.03130383417010307,
        0.3983490765094757,
        0.027087345719337463,
        -0.6827632188796997,
        -0.17908117175102234,
        -0.05652602016925812,
        0.11809280514717102,
        -0.16438856720924377,
        -0.10584046691656113,
        -1.6582847833633423,
        0.0895158126950264,
        -0.24157199263572693,
        0.14181116223335266,
        -1.0800786018371582,
        -0.13319402933120728,
        0.099704310297966,
        0.5329602360725403,
        -0.3508150279521942,
        -0.035363856703042984,
        -0.5501630306243896,
        -0.3355604112148285,
        -0.24427342414855957,
        -0.22518539428710938,
        -0.527265191078186,
        0.46813347935676575,
        -2.1432178020477295,
        0.06790807098150253,
        -0.5369617342948914,
        -2.830595016479492,
        0.14566180109977722,
        0.09646675735712051,
        0.0590173564851284,
        0.12316294014453888,
        -0.5157455801963806,
        0.05831676721572876,
        0.16160905361175537,
        0.1512587070465088,
        -0.03288871422410011,
        -0.4143642783164978,
        -0.1621745377779007,
        -0.3653619885444641,
        0.06827645748853683,
        0.27928537130355835,
        -0.4978400468826294,
        -0.07400507479906082,
        0.03189591318368912,
        -0.31581324338912964,
        0.07598210871219635,
        -0.07957908511161804,
        0.4687693119049072,
        0.13837580382823944,
        0.38948899507522583,
        -0.2853797972202301,
        0.16970787942409515,
        0.521210789680481,
        -0.523673951625824,
        -0.18603605031967163,
        -0.1699051409959793,
        0.09160605818033218,
        0.15235988795757294,
        -2.064981698989868,
        -2.096388816833496,
        -0.012721198610961437,
        -0.4917312562465668,
        0.39934179186820984,
        0.280538409948349,
        -1.2158464193344116,
        0.1908252239227295,
        -1.4364413022994995,
        -2.586078405380249,
        0.24081918597221375,
        -0.16988515853881836,
        -2.0246078968048096,
        -2.099180221557617,
        0.19740763306617737,
        -0.032636165618896484,
        0.11542720347642899,
        -0.08698555082082748,
        -0.12751995027065277,
        0.06697551161050797,
        0.905929446220398,
        -0.6875724792480469,
        -0.1511792540550232,
        0.32173997163772583,
        -0.065031997859478,
        0.5394707322120667,
        0.2480604648590088,
        -0.376158207654953,
        0.25272831320762634,
        0.13045236468315125,
        0.15877997875213623,
        0.07717562466859818,
        0.4370476007461548,
        0.6238609552383423,
        0.022046221420168877,
        -0.41071808338165283,
        -0.5295640230178833,
        0.22703929245471954,
        -0.040994174778461456,
        0.13022756576538086,
        0.2929578721523285,
        -0.052105315029621124,
        -0.4007275402545929,
        -0.059418510645627975,
        -0.36013418436050415,
        0.2604525685310364,
        -0.1535838097333908,
        -0.04832486808300018,
        0.3347003757953644,
        -0.43467622995376587,
        -0.27374595403671265,
        0.3239402174949646,
        0.5637484788894653,
        -1.446061372756958,
        0.2951330840587616,
        -0.22169248759746552,
        1.1341766119003296,
        0.6375170946121216,
        1.0003962516784668,
        -0.12052381038665771,
        0.01362972054630518,
        0.23363889753818512,
        -0.31139516830444336,
        0.3816663324832916,
        -1.0497430562973022,
        -0.9706056714057922,
        0.1260647028684616,
        0.4157646596431732,
        -0.32216110825538635,
        -0.4308266043663025,
        -0.40583017468452454,
        -0.04177692532539368,
        -0.3597721457481384,
        0.5327557921409607,
        -0.2185436189174652,
        0.2883177697658539,
        -0.04824507609009743,
        -0.5279285907745361,
        -0.0004521654627751559,
        -0.23811738193035126,
        -0.06349944323301315,
        0.4429372251033783,
        -0.06875349581241608,
        -0.2495315819978714,
        -0.06434355676174164,
        -0.11607560515403748,
        0.09067869186401367,
        0.14705629646778107,
        0.14498816430568695,
        0.017590565606951714,
        -0.2741900086402893,
        -0.060483988374471664,
        -0.09899851679801941,
        -0.06802402436733246,
        0.004033196251839399,
        0.37180760502815247,
        -0.2598766088485718,
        -0.13799627125263214,
        0.39825454354286194,
        -0.09504901617765427,
        -0.2371116280555725,
        -0.631959855556488,
        0.004999819211661816,
        -0.21387994289398193,
        -0.09977599233388901,
        0.3452066481113434,
        -8.911274909973145,
        -0.16123855113983154,
        -0.7958104610443115,
        -0.5126489400863647,
        0.3957795202732086,
        -0.055691782385110855,
        -0.1681167185306549,
        -0.29368406534194946,
        0.5576918721199036,
        -0.21147267520427704,
        0.4182644188404083,
        0.47395822405815125,
        0.15707072615623474,
        0.19599324464797974,
        0.02783072553575039,
        -1.3146562576293945,
        0.46293482184410095,
        -0.009526894427835941,
        -0.10003267228603363,
        -0.3379988670349121,
        0.14011111855506897,
        -0.25632551312446594,
        -0.21046705543994904,
        -0.15748077630996704,
        1.5269732475280762,
        0.37488505244255066,
        -0.29141467809677124,
        1.88567316532135,
        0.04975340515375137,
        0.5376582145690918,
        -0.20308861136436462,
        0.48517802357673645,
        0.34274765849113464,
        0.03898616507649422,
        -0.2604932487010956,
        -0.004574856720864773,
        -0.27253031730651855,
        -0.04315963387489319,
        -0.7594096660614014,
        -0.39833366870880127,
        -0.38309022784233093,
        -0.6183118224143982,
        -0.033331140875816345,
        0.21602965891361237,
        0.01334801223129034,
        0.3242270350456238,
        -0.13990318775177002,
        0.12461691349744797,
        -0.4163897931575775,
        -1.3675731420516968,
        -0.5599825978279114,
        -0.5441656708717346,
        -0.17078377306461334,
        -0.039486054331064224,
        -0.4805787205696106,
        -0.587013304233551,
        -0.314359575510025,
        -0.6052009463310242,
        0.07457522302865982,
        -0.04740471392869949,
        -0.9744855165481567,
        -0.4436967670917511,
        0.5469971895217896,
        -0.10441914200782776,
        0.36522629857063293,
        -0.9460482597351074,
        -0.8963286280632019,
        0.0490347258746624,
        -0.8766853213310242,
        0.4179985225200653,
        0.9958813786506653,
        0.36402374505996704,
        0.021531805396080017,
        -0.7585042119026184,
        -0.793087363243103,
        -0.059820447117090225,
        -0.6219374537467957,
        -0.6531193852424622,
        -0.47297120094299316,
        -2.45188045501709,
        0.33115461468696594,
        0.5090558528900146,
        -0.03369913250207901,
        0.8090898394584656,
        -0.5094444751739502,
        -1.1688212156295776,
        0.4914090931415558,
        -0.6189517378807068,
        -0.6789969205856323,
        -0.273355633020401,
        0.4509942829608917,
        -0.20503394305706024,
        0.7426686882972717,
        -0.28756001591682434,
        -1.157047152519226,
        -0.5196053981781006,
        -0.0016143894754350185,
        -0.7735073566436768,
        0.028251888230443,
        0.09842026978731155,
        0.2646503746509552,
        0.08501487225294113,
        -0.45262011885643005,
        0.5620812773704529,
        -0.015972882509231567,
        -2.1060872077941895,
        -0.5089029669761658,
        0.28631994128227234,
        1.1194994449615479,
        -0.03390763700008392,
        -0.17488598823547363,
        0.025398897007107735,
        -0.49633100628852844,
        0.3603959381580353,
        -1.030687689781189,
        -0.6476710438728333,
        -0.4408070743083954,
        0.37028419971466064,
        -0.4766708314418793,
        -0.10115306079387665,
        -0.19868534803390503,
        -0.6658055782318115,
        -0.07351507991552353,
        0.18546901643276215,
        -1.141410231590271,
        0.4129703640937805,
        0.4475495517253876,
        -0.43371954560279846,
        0.11293458193540573,
        -1.060573697090149,
        0.5602680444717407,
        0.784690260887146,
        0.04161044582724571,
        0.5086368918418884,
        -1.7794736623764038,
        0.5715351104736328,
        0.22941915690898895,
        0.2789750397205353,
        -0.6696262955665588,
        0.8037541508674622,
        -4.801123142242432,
        -0.09372550249099731,
        0.1608259230852127,
        0.32723361253738403,
        -0.07435249537229538,
        -0.23699437081813812,
        -0.051095761358737946,
        0.5498230457305908,
        -0.18477724492549896,
        1.1350772380828857,
        -0.25791287422180176,
        0.4989021122455597,
        -0.1949797123670578,
        -0.5279669165611267,
        -0.5591966509819031,
        0.7520480155944824,
        0.11857042461633682,
        -0.30659088492393494,
        0.32076147198677063,
        -0.019229261204600334,
        -0.4469905495643616,
        0.03064338117837906,
        -0.4160597324371338,
        -0.46716198325157166,
        0.6890886425971985,
        0.10950448364019394,
        -4.594697952270508,
        -0.6817917823791504,
        0.23280656337738037,
        -0.5041226148605347,
        -0.037919845432043076,
        0.304421603679657,
        -0.15744146704673767,
        -0.8332940936088562,
        -0.22539161145687103,
        -0.11935411393642426,
        1.0967450141906738,
        -0.7138698101043701,
        0.11951301991939545,
        -0.6428823471069336,
        -0.3779415190219879,
        -0.27843809127807617,
        0.2760862708091736,
        0.20083491504192352,
        0.2200227975845337,
        0.49441957473754883,
        -0.09149887412786484,
        0.08345241844654083,
        -1.973894476890564,
        0.2612963616847992,
        0.06628386676311493,
        0.28613799810409546,
        -0.7962809801101685,
        0.13627545535564423,
        0.2104731649160385,
        -0.11910539120435715,
        -0.24278582632541656,
        -0.4090455174446106,
        0.2234112173318863,
        -0.32012057304382324,
        0.08447978645563126,
        -0.011456737294793129,
        0.47235044836997986,
        0.5281582474708557,
        -0.31685498356819153,
        -0.46340322494506836,
        0.4550817906856537,
        0.7224643230438232,
        0.4777718484401703,
        0.126004159450531,
        -0.2031116783618927,
        -0.4939582943916321,
        -0.19298073649406433,
        0.18406394124031067,
        -0.2291625440120697,
        0.9190438985824585,
        -0.1513255089521408,
        -0.44733214378356934,
        -0.1283612698316574,
        -0.3412398397922516,
        -1.7062212228775024,
        -1.563815712928772,
        -0.1872236728668213,
        -0.12777256965637207,
        -0.4288961887359619,
        -0.19299940764904022,
        0.45957231521606445,
        -0.04144104942679405,
        0.5659488439559937,
        -0.0836634710431099,
        -0.0573078915476799,
        -0.40556493401527405,
        0.11428889632225037,
        -0.10401618480682373,
        -0.3607891798019409,
        -0.1620880663394928,
        0.7063039541244507,
        -0.11093229800462723,
        -0.16488468647003174,
        0.21230706572532654,
        -0.7536887526512146,
        -0.1564047634601593,
        0.009908929467201233,
        -1.4370402097702026,
        -0.6078132390975952,
        -0.06801401823759079,
        0.45487654209136963,
        -0.9039682745933533,
        -0.24876733124256134,
        -0.2637832462787628,
        0.6392194032669067,
        0.06472871452569962,
        1.2254680395126343,
        -0.08777182549238205,
        -0.19251766800880432,
        -0.3482345938682556,
        -0.10560137778520584,
        -0.40001586079597473,
        1.2427657842636108,
        -1.3882853984832764,
        0.665647566318512,
        -0.23830097913742065,
        -0.8672226667404175,
        -0.0260152667760849,
        -0.01675810106098652,
        0.15238679945468903,
        0.2837877869606018,
        -0.24531908333301544,
        0.029710423201322556,
        -0.3174929618835449,
        1.0266351699829102,
        0.1324995458126068,
        0.1868790239095688,
        -0.7904404401779175,
        -0.4894550144672394,
        0.3655945956707001,
        -0.015462186187505722,
        0.07505097985267639,
        -0.21859872341156006,
        0.13996514678001404,
        -0.6332752108573914,
        0.0899488627910614,
        -0.3668231666088104,
        0.09203192591667175,
        0.14444540441036224,
        -0.24941276013851166,
        -0.06255953013896942,
        -0.14298413693904877,
        0.13700984418392181,
        0.33345234394073486,
        0.4584414064884186,
        0.037206824868917465,
        0.6933186650276184,
        0.23876447975635529,
        -0.8956126570701599,
        -0.0059889224357903,
        0.3861195743083954,
        0.4849615693092346,
        -0.7666123509407043,
        0.16749031841754913,
        -4.151612758636475,
        -0.39480552077293396,
        0.3156398832798004,
        0.10425010323524475,
        0.9760526418685913,
        0.39750924706459045,
        -0.8611525893211365,
        0.3696407973766327,
        0.5006284713745117,
        0.4672088027000427,
        0.6040623784065247,
        0.1377391517162323,
        -0.16011884808540344,
        -0.453609824180603,
        0.4274926483631134,
        0.1725631207227707,
        0.26821717619895935,
        0.886491060256958,
        -0.6763395667076111,
        0.7910934686660767,
        0.6132597923278809,
        0.16627949476242065,
        0.17685601115226746,
        0.19382838904857635,
        -0.1536417305469513,
        0.38791316747665405,
        0.27913233637809753,
        1.707579255104065,
        0.6177543997764587,
        -1.1434845924377441,
        -0.9685218930244446,
        -0.6394833922386169,
        -0.19993425905704498,
        -0.26275327801704407,
        -0.4591292440891266,
        -0.3834611177444458,
        0.1549006849527359,
        -0.214752197265625,
        0.17849788069725037,
        0.3815818727016449,
        0.3803110420703888,
        -0.1722106635570526,
        0.2520485818386078,
        -0.8619425296783447,
        0.010310712270438671,
        0.7764724493026733,
        0.28732019662857056,
        -1.1723898649215698,
        -0.3361499011516571,
        0.061059024184942245,
        0.568963885307312,
        -0.01353453192859888,
        0.3553188741207123,
        -0.10230594128370285,
        -0.5827235579490662,
        0.17239981889724731,
        -1.0643739700317383,
        -0.4959627687931061,
        0.9610869288444519,
        -0.4759128987789154,
        1.3528598546981812,
        0.7694566249847412,
        -0.6255049109458923,
        0.3480331599712372,
        -1.5271539688110352,
        0.6105260848999023,
        0.9879080653190613,
        -0.24851703643798828,
        0.1705227494239807,
        0.7489978671073914,
        -0.6960774064064026,
        0.7142217755317688,
        -0.4028661847114563,
        0.762489914894104,
        0.9030786752700806,
        0.49247342348098755,
        0.06544030457735062,
        -0.24434852600097656,
        -0.19396740198135376,
        0.1905093491077423,
        -1.4341057538986206,
        -0.1578371524810791,
        0.7132146954536438,
        -0.6860893964767456,
        0.7283256649971008,
        -0.02587028406560421,
        -0.7042528986930847,
        -0.07145459949970245,
        0.9904857873916626,
        0.5584370493888855,
        -0.19595545530319214,
        -0.18366844952106476,
        -0.8077399730682373,
        -0.2041894793510437,
        -1.4478492736816406,
        -0.3605097830295563,
        -0.09444789588451385,
        0.21853728592395782,
        -1.5277581214904785,
        -0.1660192906856537,
        -0.23699146509170532,
        -1.3507091999053955,
        -0.07541586458683014,
        -0.5985283255577087,
        0.21140247583389282,
        -0.06238614767789841,
        -1.997076392173767,
        -0.6708102226257324,
        -1.2822221517562866,
        -0.0671386644244194,
        0.34302183985710144,
        -0.4581046998500824,
        -0.32930710911750793,
        -1.2114835977554321,
        -0.5984789729118347,
        -0.37569278478622437,
        -0.725248396396637,
        0.9803476333618164,
        0.18335574865341187,
        0.22525803744792938,
        0.38521814346313477,
        -0.9608189463615417,
        0.330701619386673,
        0.16930146515369415,
        -0.03900465741753578,
        0.04778652265667915,
        -0.3347354829311371,
